<?xml version="1.0"?>
<MethodSetup Method="MLP::MLPBNN">
  <GeneralInfo>
    <Info name="TMVA Release" value="4.2.1 [262657]"/>
    <Info name="ROOT Release" value="6.22/06 [398854]"/>
    <Info name="Creator" value="trom"/>
    <Info name="Date" value="Mon Jan 11 12:10:44 2021"/>
    <Info name="Host" value="Linux buildvm-x86-05.iad2.fedoraproject.org 5.7.11-200.fc32.x86_64 #1 SMP Wed Jul 29 17:15:52 UTC 2020 x86_64 x86_64 x86_64 GNU/Linux"/>
    <Info name="Dir" value="/home/trom/Vjezbe/Vjezbe_12"/>
    <Info name="Training events" value="2000"/>
    <Info name="TrainingTime" value="5.78664010e+01"/>
    <Info name="AnalysisType" value="Classification"/>
  </GeneralInfo>
  <Options>
    <Option name="NCycles" modified="Yes">60</Option>
    <Option name="HiddenLayers" modified="Yes">N+5</Option>
    <Option name="NeuronType" modified="Yes">tanh</Option>
    <Option name="RandomSeed" modified="No">1</Option>
    <Option name="EstimatorType" modified="No">CE</Option>
    <Option name="NeuronInputType" modified="No">sum</Option>
    <Option name="V" modified="Yes">False</Option>
    <Option name="VerbosityLevel" modified="No">Default</Option>
    <Option name="VarTransform" modified="Yes">N</Option>
    <Option name="H" modified="Yes">True</Option>
    <Option name="CreateMVAPdfs" modified="No">False</Option>
    <Option name="IgnoreNegWeightsInTraining" modified="No">False</Option>
    <Option name="TrainingMethod" modified="Yes">BFGS</Option>
    <Option name="LearningRate" modified="No">2.000000e-02</Option>
    <Option name="DecayRate" modified="No">1.000000e-02</Option>
    <Option name="TestRate" modified="Yes">5</Option>
    <Option name="EpochMonitoring" modified="No">False</Option>
    <Option name="Sampling" modified="No">1.000000e+00</Option>
    <Option name="SamplingEpoch" modified="No">1.000000e+00</Option>
    <Option name="SamplingImportance" modified="No">1.000000e+00</Option>
    <Option name="SamplingTraining" modified="No">True</Option>
    <Option name="SamplingTesting" modified="No">False</Option>
    <Option name="ResetStep" modified="No">50</Option>
    <Option name="Tau" modified="No">3.000000e+00</Option>
    <Option name="BPMode" modified="No">sequential</Option>
    <Option name="BatchSize" modified="No">-1</Option>
    <Option name="ConvergenceImprove" modified="No">1.000000e-30</Option>
    <Option name="ConvergenceTests" modified="No">-1</Option>
    <Option name="UseRegulator" modified="Yes">True</Option>
    <Option name="UpdateLimit" modified="No">10000</Option>
    <Option name="CalculateErrors" modified="No">False</Option>
    <Option name="WeightRange" modified="No">1.000000e+00</Option>
  </Options>
  <Variables NVar="4">
    <Variable VarIndex="0" Expression="ele_pt" Label="ele_pt" Title="ele_pt" Unit="" Internal="ele_pt" Type="F" Min="5.00599241e+00" Max="3.06198883e+02"/>
    <Variable VarIndex="1" Expression="ele_ep" Label="ele_ep" Title="ele_ep" Unit="" Internal="ele_ep" Type="F" Min="4.18868935e-04" Max="2.00000000e+01"/>
    <Variable VarIndex="2" Expression="ele_eelepout" Label="ele_eelepout" Title="ele_eelepout" Unit="" Internal="ele_eelepout" Type="F" Min="2.26789676e-02" Max="2.00000000e+01"/>
    <Variable VarIndex="3" Expression="scl_eta" Label="scl_eta" Title="scl_eta" Unit="" Internal="scl_eta" Type="F" Min="-2.55902076e+00" Max="2.58148694e+00"/>
  </Variables>
  <Spectators NSpec="0"/>
  <Classes NClass="2">
    <Class Name="Signal" Index="0"/>
    <Class Name="Background" Index="1"/>
  </Classes>
  <Transformations NTransformations="1">
    <Transform Name="Normalize">
      <Selection>
        <Input NInputs="4">
          <Input Type="Variable" Label="ele_pt" Expression="ele_pt"/>
          <Input Type="Variable" Label="ele_ep" Expression="ele_ep"/>
          <Input Type="Variable" Label="ele_eelepout" Expression="ele_eelepout"/>
          <Input Type="Variable" Label="scl_eta" Expression="scl_eta"/>
        </Input>
        <Output NOutputs="4">
          <Output Type="Variable" Label="ele_pt" Expression="ele_pt"/>
          <Output Type="Variable" Label="ele_ep" Expression="ele_ep"/>
          <Output Type="Variable" Label="ele_eelepout" Expression="ele_eelepout"/>
          <Output Type="Variable" Label="scl_eta" Expression="scl_eta"/>
        </Output>
      </Selection>
      <Class ClassIndex="0">
        <Ranges>
          <Range Index="0" Min="5.9320044517517090e+00" Max="2.9407147216796875e+02"/>
          <Range Index="1" Min="4.1886893450282514e-04" Max="2.0000000000000000e+01"/>
          <Range Index="2" Min="6.1274066567420959e-02" Max="2.0000000000000000e+01"/>
          <Range Index="3" Min="-2.5590207576751709e+00" Max="2.5319814682006836e+00"/>
        </Ranges>
      </Class>
      <Class ClassIndex="1">
        <Ranges>
          <Range Index="0" Min="5.0059924125671387e+00" Max="3.0619888305664062e+02"/>
          <Range Index="1" Min="3.8343772292137146e-02" Max="2.0000000000000000e+01"/>
          <Range Index="2" Min="2.2678967565298080e-02" Max="2.0000000000000000e+01"/>
          <Range Index="3" Min="-2.5213608741760254e+00" Max="2.5814869403839111e+00"/>
        </Ranges>
      </Class>
      <Class ClassIndex="2">
        <Ranges>
          <Range Index="0" Min="5.0059924125671387e+00" Max="3.0619888305664062e+02"/>
          <Range Index="1" Min="4.1886893450282514e-04" Max="2.0000000000000000e+01"/>
          <Range Index="2" Min="2.2678967565298080e-02" Max="2.0000000000000000e+01"/>
          <Range Index="3" Min="-2.5590207576751709e+00" Max="2.5814869403839111e+00"/>
        </Ranges>
      </Class>
    </Transform>
  </Transformations>
  <MVAPdfs/>
  <Weights>
    <Layout NLayers="3">
      <Layer Index="0" NNeurons="5">
        <Neuron NSynapses="9">
          -1.1532674469875674e+00 4.5169206315875714e+00 6.6571417688522760e-01 6.4036401231070386e+00 -2.5429319426475789e+00 -2.2063183452032176e+00 -3.4281531504266038e-01 -1.2114404785205550e-01 -1.7490345291388394e+00 
        </Neuron>
        <Neuron NSynapses="9">
          8.8979567525312164e-01 -3.9605714525327724e+00 1.3658175917232921e-02 -2.0831069842571007e-03 -3.9514679230760780e-01 9.8467339068717519e-02 7.0273796449850678e-01 -6.8325714702490359e-01 2.3460689608534606e+00 
        </Neuron>
        <Neuron NSynapses="9">
          1.2179381024059259e+00 8.4037106557312735e-01 1.2206341410835915e-01 -1.8129179463701875e-01 -1.2620864079048863e-01 -4.1489907198170206e-01 -1.9087627979909909e+00 -4.5003728052133385e-01 1.4809575718557491e-01 
        </Neuron>
        <Neuron NSynapses="9">
          -7.4546657254224616e-02 1.5364632197173292e-01 -4.6060570748981740e-02 -1.4334088083649438e-01 1.4415256679945405e+00 -1.1906871497932645e-01 -5.6228254927457733e-01 4.1546080247489803e-01 1.0349949287731375e-01 
        </Neuron>
        <Neuron NSynapses="9">
          -4.4243728712560175e+00 1.7059572297162213e+00 -1.7923536115554537e+00 6.4173833311395745e+00 6.4104741759861339e-01 -3.4810759038480898e-01 7.3832247828914765e-01 3.1442125769769600e+00 -2.8527203306379417e-01 
        </Neuron>
      </Layer>
      <Layer Index="1" NNeurons="10">
        <Neuron NSynapses="1">
          -2.3959417509586016e+00 
        </Neuron>
        <Neuron NSynapses="1">
          3.0184252784824293e+00 
        </Neuron>
        <Neuron NSynapses="1">
          1.1436165897179527e+00 
        </Neuron>
        <Neuron NSynapses="1">
          5.1776678767933566e+00 
        </Neuron>
        <Neuron NSynapses="1">
          3.3712702595796379e-01 
        </Neuron>
        <Neuron NSynapses="1">
          7.2494006382982812e-01 
        </Neuron>
        <Neuron NSynapses="1">
          3.6251073963095404e-01 
        </Neuron>
        <Neuron NSynapses="1">
          -2.1018427433626949e+00 
        </Neuron>
        <Neuron NSynapses="1">
          1.4688126867255413e+00 
        </Neuron>
        <Neuron NSynapses="1">
          -3.7929368773015528e+00 
        </Neuron>
      </Layer>
      <Layer Index="2" NNeurons="1">
        <Neuron NSynapses="0"/>
      </Layer>
    </Layout>
    <InverseHessian NElements="3025" NRows="55" NCols="55">
      <Row Index="0">
        3.2665902206384580e+04 -2.1531621828982679e+01 6.5438070384510174e+03 -9.8094237584696828e+01 -2.1005203496353756e+03 -1.5105124063827466e+03 -4.1236449178675866e+02 3.0974807889556494e+04 -5.3822368311696309e+01 -2.6023657813517357e+03 5.3334961725207336e+01 -5.0984216395544354e+03 -2.8207325526397774e+01 3.5977036534033846e+02 2.4549224654812522e+02 3.1186329624312350e+01 -8.9480303998025611e+03 -1.1534099852707335e+02 -1.1175080612361149e+04 -6.4183667088903560e+00 1.2419928251955273e+03 -7.9338609481252540e+00 -1.9335286832459024e+03 -3.7272876656296449e+02 -1.9690313071062512e+01 -2.3547879678746984e+04 -5.2019828959460725e+01 -5.2432177479544425e+03 -3.0089046931535819e+00 -2.8041301599093199e+03 1.9796092342953679e+00 1.3220845908969413e+03 -3.8887313365339864e+00 -8.2597436831923829e+00 -1.7467352541004748e+04 -2.6911551435031978e+01 4.5949952211255077e+04 2.3268556845303127e+01 -1.8057607761861796e+04 -1.1839676227617910e+02 -1.1422820641437249e+02 -3.1569681844570539e+02 -3.9307498144318868e+02 -1.4818136714201282e+03 -1.1186989991090945e+02 -3.4668141613617256e+04 1.0063894796123540e+02 4.8191266361786293e+03 1.6168849484589268e+02 -8.0213252767024642e+01 -8.6760150542293582e+02 -3.9001598239080522e+01 -1.4706864584053023e+04 2.6531102977891334e+02 -1.3749733660184691e+04 
      </Row>
      <Row Index="1">
        -2.1531621738772863e+01 1.6676210892218062e+01 -4.6995189338682415e+01 -1.7992135770193656e+00 -1.7181983001233409e+01 -5.0936314014506623e+00 6.5642870229953436e+00 -1.1743831445062119e+02 4.8431195110669343e+00 -1.7290170506680255e+01 -1.0485445292644521e+01 -4.2674942057960521e+01 6.2094346661181826e-02 4.1602854777333595e+00 -2.0418415936109597e+00 -8.7893526149849102e+00 7.7638834807604937e+01 -1.6341029204341075e+00 4.5204412405110723e+00 3.6945713923586974e+00 -9.2772210311358805e+00 -1.1326837010445030e-01 -1.6295967790307927e+01 -4.4706150795070210e+00 -4.6526194524455020e+00 1.0526547456775610e+01 5.9353899234943217e+00 4.1035585522379030e+00 9.0485900653279372e-01 3.9061511809318326e+01 -3.6066424278527444e-02 -2.0928756000330591e+00 -4.5260130527790228e+00 -1.4750018598143169e+00 -4.5158097469633496e+01 1.6586647830442960e+00 -1.9438428528085517e+01 8.5959112356054952e+00 1.0773408449103002e+01 -1.5450515908296250e+00 -2.4671239579292141e+01 -2.0634568484084537e+00 2.6026025171961997e-01 -2.2803545242341795e+02 2.5082660974467341e+00 5.7563219719206558e+00 -1.8347040833292930e+01 4.5788337664631271e+01 1.0995993882583781e+00 -3.3466670748910952e+00 3.8989181323223878e+00 -1.1386580225578404e+00 -3.6390166257642225e+00 -1.7008505402623349e+01 5.0002546578240718e+01 
      </Row>
      <Row Index="2">
        6.5438070314327260e+03 -4.6995189456555636e+01 3.8994306343122749e+04 -2.4767503322149003e+02 6.6527394975712523e+03 -9.6697074657164594e+03 -3.8896535830070650e+02 5.9376596489677904e+03 2.7434957979575989e+02 -1.7759641700404754e+03 1.0808416257685895e+01 7.5703687844411434e+01 -1.9178816070699984e+01 6.7683923416628431e+02 8.6229164862686400e+02 -4.4455881301627983e+02 2.5710681182590324e+03 -2.2117845443208230e+02 -3.2121617637443399e+02 2.0839582994717500e+01 5.2233441452884017e+03 4.9175182783079748e+01 -8.9232597949755871e+02 -1.5687530385543539e+03 4.0532509999836378e+02 -3.3145934117637985e+03 1.3565015947415704e+01 -1.1273427788555568e+03 -8.1241408354376665e-01 -1.4682852074492348e+04 1.9418129545354528e+01 -4.3305284849703248e+03 -4.5071727881480541e+02 1.2443488642133028e+02 -4.2156208941669247e+03 -1.3387352270666703e+01 1.1355363154971108e+04 -2.2295342389105631e+01 -4.7179715192389493e+04 -2.0910551768351806e+02 1.3645874346360597e+03 -3.2559875727037693e+03 -5.9581292285883148e+02 -6.2430829764070622e+03 1.3220596401890111e+02 6.3196853409563728e+03 -7.2103528352755903e+00 -4.7341275604660957e+04 4.7314743999646777e+02 2.0666103032081337e+03 -5.9484727003286753e+03 1.6743979186529668e+02 -1.9130430882752837e+04 1.5624655517398486e+02 -1.5790349575900749e+04 
      </Row>
      <Row Index="3">
        -9.8094237417593106e+01 -1.7992135762204882e+00 -2.4767503326459513e+02 2.3301137312434662e+01 2.7145940468482877e+01 -2.1888659964146351e+00 1.6729178018171409e+00 -2.1439428225184940e+02 -5.8535734987367738e-01 2.3020811752501686e+01 1.7420417107505859e+00 1.3234817097954368e+02 -3.5082690925018499e-02 1.5343614344637899e+00 -1.4886985076612040e+01 7.2469708494683305e-01 -8.7003183833290390e+00 3.3176029322101672e+00 -2.2460711005806957e+01 -5.2003987622232406e-01 -3.9817262770435036e+01 -8.0134996725490204e-01 4.7678101605478087e+00 3.1597742083573115e+00 1.1812090770246796e+01 5.2285610241726346e+01 -5.1770483666521339e-01 2.2248869438667565e+01 6.4477499326730150e-02 3.2551565922082020e+01 -5.9026967223421534e-01 -3.8235651608479877e+01 3.8204480451145448e+00 3.2679482237880944e+00 5.6015943832918872e+01 3.1460340241814211e-01 -9.5845181818449944e+01 -7.6365272406480733e-01 4.2874140830522543e+02 1.8618171801590250e+01 -1.1810592875495196e-01 -1.6951443409429476e+01 -1.9363522371842734e-01 1.9334460340074603e+01 8.0427491820428409e-01 1.4438227535827377e+02 1.5213744892026584e+00 1.7019331163198132e+02 -3.4521616472651345e+01 9.0838232495075353e+00 1.1872358199484767e+01 3.2887267492542875e+00 1.7021221660762373e+02 -2.0252275231717412e+00 1.2988974692453229e+02 
      </Row>
      <Row Index="4">
        -2.1005203495232854e+03 -1.7181983011744819e+01 6.6527394969830202e+03 2.7145940483938372e+01 4.1713624109905795e+03 -2.2106249643834635e+03 9.0079943153410760e+00 -3.4345055888101610e+03 4.5210624532489796e+01 -6.9366051080176021e+02 -9.2626798549696598e-01 2.2264750060500164e+03 6.2245944821434285e-01 4.7372005232964875e+02 4.4093786704865323e+01 -2.4884424914860315e+01 3.2468795583979818e+03 -1.4801123396276440e+01 -4.8977869629487111e+02 3.9625354689178991e+00 2.7313737826342606e+02 7.9412370427407479e+00 1.7206072461085529e+02 -3.4009691162372269e+02 -1.6589997499198134e+01 1.8221623905727336e+03 -3.9569238227190173e-01 5.5876452412703838e+02 1.8488352144728528e+00 -3.9158244396556884e+03 4.5668010337575344e+00 -3.2875818063560941e+03 1.5468808267137447e+01 -4.4283648727290270e+00 -3.4024582085907525e+01 6.1010956813900972e+00 -1.0493127118551752e+03 -1.5205437201442564e+01 -6.5814028637543233e+03 2.9074492537197379e+01 4.0269936528920965e+02 -1.0868166411627406e+03 6.9431926084155613e+00 -3.5360332158493138e+03 3.1728932650265811e+01 2.7493389188234737e+03 -2.4917836677336513e+00 -6.3215770810306203e+03 -8.0600683128806345e+00 9.6902956606152156e+02 -1.3191065903756253e+03 1.6569462718264887e+01 -1.8241082658529449e+03 -1.6220365874058764e+01 -1.0114911747697353e+03 
      </Row>
      <Row Index="5">
        -1.5105124072624603e+03 -5.0936313914586435e+00 -9.6697074649675160e+03 -2.1888660007406289e+00 -2.2106249642608163e+03 3.2621860544772476e+03 7.5858917811097939e+01 -1.4607867697842446e+03 -1.4079422740646750e+01 4.1629735490719577e+02 5.6233315263576058e+00 -1.7732939778167674e+03 5.4857635737258859e+00 -2.0464253375434782e+02 -1.1515420471300209e+02 1.6893972473360111e+02 -6.1189681667388231e+02 2.3819986118048238e+01 3.4193762479502300e+02 -5.4053916719720352e+00 -1.3884042420837973e+03 -1.3123675873856977e+01 5.2832276341004444e+02 4.6745453305771281e+02 -2.6502149888044534e+02 1.6132118354334611e+03 -4.0883886131461828e+00 3.9614820723194015e+02 -3.2183151027715545e-03 4.1058594622064193e+03 -3.6816823687222038e+00 1.7614686835128919e+03 1.7232575941514310e+02 -9.0749577832802743e+01 3.4894942004658515e+02 4.4299222396772331e-01 -2.8136297348671164e+03 -3.1637281727119526e+00 1.5569494005969193e+04 -2.8816467887380446e+00 -4.4673122520379565e+01 1.3236989402308882e+03 1.7398631860930570e+02 1.4877767677059003e+03 -4.2041872270975329e+00 -2.9256834927861019e+02 6.6980138473075890e+00 4.0670014004307177e+03 -3.0948639143165302e+01 -7.0010251028256732e+02 1.9115537230744033e+03 -9.5295385629555611e+01 1.2407110541203183e+03 -5.7496819092066902e+00 7.4937174334539441e+02 
      </Row>
      <Row Index="6">
        -4.1236449146218365e+02 6.5642870248303353e+00 -3.8896535849852643e+02 1.6729178020296538e+00 9.0079942811717046e+00 7.5858917814047373e+01 2.7318214448379780e+02 3.9486323297970409e+02 -1.5878009757996878e+00 -9.9620613188730545e+01 -3.6466025026290945e+00 5.3927806813550330e+02 -2.6451789150884414e-01 -3.5455534235661617e+00 -2.3268427192038160e+01 -4.8700967355747395e+01 3.0791788501966573e+02 3.5974806807706781e+00 3.7446422806935288e+02 3.0976444977541209e+00 1.0077774677393567e+01 7.0907093630365026e-01 -1.2101600317618484e+02 9.0150586436063413e+00 4.7942709507259131e+00 -4.2234714621725317e+02 2.8021075710028192e+00 -6.7711654629363935e+01 4.6810619888682142e-01 1.0917469185113269e+02 -6.4472419817496296e-02 2.3065019857174789e+01 -1.2930044655788272e+01 5.7294485690262640e+00 5.9485778658842901e+02 3.7311634537500864e+00 -5.9160886717753681e+02 4.4230529705063137e+00 6.7725075495514864e+02 1.6452082067962648e+00 -1.0606541707770984e+02 -1.7845081310455036e+01 1.7864560670466429e+02 7.8667807465707347e+02 -1.0234165327937848e+00 3.8229029855037248e+02 -9.7782014871611516e+00 2.4686593448066932e+02 -5.7566921909463495e+00 -1.7424934769277247e+01 3.0657157437305784e+01 -1.3719582004421174e+00 4.3880588134337677e+02 -2.0020804651889918e+01 1.6637122406027962e+02 
      </Row>
      <Row Index="7">
        3.0974807897294872e+04 -1.1743831447702377e+02 5.9376596417121145e+03 -2.1439428235332755e+02 -3.4345055906870402e+03 -1.4607867685491128e+03 3.9486323278831151e+02 1.1421144743380212e+05 -5.9541040367074538e+02 -4.3561864358906532e+03 1.2654176880333399e+02 1.1422500398264539e+04 -2.0796821408583135e+01 1.4709427130213007e+03 -3.1285115080288665e+02 -1.2759017588441152e+02 -2.1606703516558846e+04 3.0392216292087767e+02 -2.1415105808022847e+04 -3.7739679172787397e+01 4.8805140673224478e+03 1.1627250027438095e+01 -3.0284344352746439e+03 -3.0786590179710373e+02 4.4188742931525309e+02 -4.9352670143980278e+04 -7.0534314336232171e+01 -1.2614223736854110e+04 -1.3165770760691448e+01 -3.2893053131921934e+03 6.4330681155324374e+00 4.8238613307655978e+03 -2.0596170354393558e+02 2.2573597228300505e+02 -1.3822694316457491e+04 -1.4256093238183784e+01 7.1470093516241686e+04 -1.8952137592250470e+01 -9.0301477341663176e+03 -1.9983362218380117e+02 1.3905937676379099e+03 -7.9853915772607309e+02 9.6852086602966921e+01 6.7463390209325051e+04 -3.2803270942737902e+02 -1.6283426618242527e+04 2.4097676333078260e+02 5.1636712336535529e+03 3.0930383534136848e+02 -1.0008820977105402e+03 -1.1267958170010995e+03 6.2283382164978661e+01 1.4940777920322885e+03 1.0155338370570746e+01 -1.0144205637336583e+04 
      </Row>
      <Row Index="8">
        -5.3822368385992377e+01 4.8431195107645593e+00 2.7434957992547254e+02 -5.8535734937799266e-01 4.5210624555702452e+01 -1.4079422754292125e+01 -1.5878009747067523e+00 -5.9541040366768232e+02 4.9282402687379268e+01 6.9459499381678683e+01 -8.2011319274320318e+00 -5.4130983307802353e+02 -1.1134762700930953e-01 -3.5215074778179769e+00 3.5347315225748815e+01 1.2490729909284015e+00 5.1323671837200386e+00 -2.4854528592084211e+01 7.1847911254119538e+01 3.8591970599957217e+00 1.3371658748504624e+01 2.3993343062981243e-01 4.0132203941526171e+01 -1.3764413676688603e+01 3.7803301682462025e+00 3.6244339303419383e+02 5.1158037283832112e+00 7.0782644335616155e+01 1.0121628652007422e+00 -1.1036441707987017e+02 2.6164274289015704e-01 -4.3090396104842235e+01 4.5953439749670402e+00 5.1144060705446781e-01 -1.4700358667128057e+02 8.6671987546175733e-01 -2.5695478018679171e+02 -7.1245586614582690e-01 -6.0381229258845622e+02 -7.0966766604281062e-01 2.3226576091555362e+01 2.8507765305616118e+01 -2.0428868390900301e-01 -6.8759385559448867e+02 2.8300010181653917e+01 7.8907509698713113e+01 -1.7391127070169421e+01 -1.4055504170556299e+02 2.3446837202587294e+00 2.0627351662319874e+01 -9.3198084677511623e+00 3.0520896774154327e-01 -9.7519019019750303e+01 -2.3090268049600926e+00 4.1565358072148804e+01 
      </Row>
      <Row Index="9">
        -2.6023657817959320e+03 -1.7290170479023800e+01 -1.7759641730563494e+03 2.3020811809931047e+01 -6.9366051085048821e+02 4.1629735470068204e+02 -9.9620613073589993e+01 -4.3561864334363254e+03 6.9459499354596488e+01 3.0963108072541399e+03 1.9775899952031015e+00 -2.2326678931418114e+03 -2.8748495116300488e+00 -1.2416630946367513e+02 6.1213986030717848e+01 -8.4856607152357938e+01 -3.8898451618501381e+03 -6.9808898880380184e+01 3.4744403537354906e+03 -1.1852523348300618e+01 2.7344514879258412e+02 -3.3508871447528463e+00 3.3632106810639959e+02 1.1923314766077493e+02 3.4206932442576004e+02 3.4098771990382152e+03 -3.9949143393849340e+00 8.0564885065663839e+02 -2.6962585325474642e+00 5.6233928086702610e+02 -1.3744168097676681e+00 4.7392370100602784e+02 3.6614539498751213e+01 1.2753907817831208e+02 1.2968037907754770e+03 -5.8954577179952370e+00 -7.4190000718748497e+03 -2.5916141047918298e+01 3.0486291873074738e+03 1.5388862351782031e+01 2.2091726926323142e+02 3.0515035356989029e+02 -7.2997732375468203e+01 1.9782396579790893e+03 5.2033381269969134e+01 1.0944031654288256e+04 3.0997912473300829e+01 -1.8044485653536449e+03 -3.3636563719491811e+01 -9.0462980531043058e+01 2.8397979925108478e+02 1.1062938011337098e+02 4.6350477825677017e+03 8.2174999181840249e+01 4.1144357664161944e+03 
      </Row>
      <Row Index="10">
        5.3334961684113296e+01 -1.0485445292598818e+01 1.0808416160777542e+01 1.7420417112127449e+00 -9.2626799598383514e-01 5.6233315345977619e+00 -3.6466025015499639e+00 1.2654176879329901e+02 -8.2011319276856245e+00 1.9775900072379784e+00 8.5619497800740021e+00 8.2759530131837693e+01 -2.6872601138665642e-01 3.0644085289022769e+00 -5.6154798642273622e+00 3.0661508953157455e+00 -5.2556813968227253e+01 2.8127568649868526e+00 9.0755630483741889e-01 -2.8305183497875359e+00 5.2192367852351982e+00 -3.9528813224642079e-02 5.9510420065746459e+00 5.0150717610097191e+00 3.2832412381911196e+00 -8.6180584847019830e+01 -4.0865750049099479e+00 -1.1625427202652190e+01 -6.9296915438707707e-01 -2.3671872726905640e+01 -3.4410787205751275e-02 2.0202238829159928e+01 3.6334749555444885e+00 1.3233546177214692e+00 1.2407709868683924e+01 -1.1127952112091055e+00 6.2103013547030272e+01 -4.1963574396491348e+00 3.6569320343641394e+01 1.3483873820994694e+00 2.7006607376219307e+01 -2.9776734033247010e+00 -1.9508486197016808e+00 2.1184673308683432e+02 -5.2667753656803242e+00 -2.8467763357586588e+00 1.3714740476528071e+01 -1.8669319592379061e+01 -1.5973009590291161e+00 -1.4031646348120104e+00 -1.1735333098393803e+00 1.1128140011218441e+00 1.8319032099356448e+01 1.1893108386988894e+01 -3.4188498212910282e+01 
      </Row>
      <Row Index="11">
        -5.0984216336227255e+03 -4.2674942037108622e+01 7.5703681301595068e+01 1.3234817100178032e+02 2.2264750051024312e+03 -1.7732939776974911e+03 5.3927806818436329e+02 1.1422500403954462e+04 -5.4130983313134891e+02 -2.2326678951659551e+03 8.2759530125112946e+01 1.9837053721974291e+04 5.0282894221564209e+00 3.4565432528158999e+02 -1.2394734839399798e+03 -2.1409479046911542e+02 3.5488937053340742e+03 3.9219241556736313e+02 -6.8897054357841034e+02 -1.9072782601998515e+01 1.7461020790919298e+02 9.7637671472148639e+00 -7.6087815599004898e+02 6.0795847819851943e+01 1.3898902499387461e+02 -9.9825760353918959e+03 -1.3913967532499624e+01 -1.5443222719469486e+03 -2.8589126337975297e+00 -2.3079190056696652e+03 -4.4149852824527596e+00 -1.5059982428885087e+02 3.7233984040549018e+01 6.6751898061397554e+01 8.1982548426482535e+03 2.8908356473319756e+01 7.9627639947663238e+02 1.8842057815042921e+01 9.3245626753376091e+03 1.2838892032157662e+02 9.8536168024862536e+02 -2.1058367431034326e+03 2.8308432420192571e+02 2.1979448202003368e+04 -2.6424063676966290e+02 9.3645647796276462e+03 1.1556572145957679e+02 -2.9769686132648048e+03 -1.8642056859255820e+02 2.3357483746729497e+02 -1.1149038915742690e+03 7.4866189079917604e+01 6.7103440495249051e+03 -2.7796978981163784e+02 6.9793553986505799e+02 
      </Row>
      <Row Index="12">
        -2.8207325525004038e+01 6.2094346673893019e-02 -1.9178816065271068e+01 -3.5082690984307885e-02 6.2245944859124336e-01 5.4857635736968922e+00 -2.6451789164179218e-01 -2.0796821412287098e+01 -1.1134762695253747e-01 -2.8748495121846158e+00 -2.6872601140401081e-01 5.0282894196701227e+00 1.7714659343080036e-01 -3.0302444361043257e-01 5.5607903319198482e-01 1.1903232349805668e+00 1.4546985557168043e+01 6.6256059511805410e-01 -2.7740999826762085e+00 3.2472382345630907e-02 -4.6770747921633271e+00 -1.4546360058936086e-02 2.2104646796653142e+00 4.8900051657115912e-01 -2.1368994936685919e+00 2.5945609800554589e+01 4.7038092860680433e-02 4.7989024212619356e+00 1.1921250413832659e-02 1.0441175515756685e+01 -2.9593328542005578e-03 -2.4924602410017078e+00 -1.1845673764683640e-01 -8.9695998176271119e-01 1.3597751695548681e+01 2.9031865502239386e-02 -2.9132548974614416e+01 -1.0407819768531604e-01 3.4341458866795136e+01 9.3618693998228503e-02 -1.9645767587856398e+00 2.0835527110572891e+00 8.7058545235948304e-01 -4.3634415016680137e+00 2.3227997094953937e-01 -7.6383599614966551e+00 -2.7010128731161309e-01 1.3193923958949329e+01 -1.7645824109775565e-01 -4.6549652857874735e-01 3.1418847874228355e+00 -6.5050794895429209e-01 1.4649606916832840e+00 -8.1749150618250077e-01 4.0529257175440753e-01 
      </Row>
      <Row Index="13">
        3.5977036545530063e+02 4.1602854769487365e+00 6.7683923414376329e+02 1.5343614339134231e+00 4.7372005231946423e+02 -2.0464253375281615e+02 -3.5455534256603372e+00 1.4709427130755548e+03 -3.5215074780850522e+00 -1.2416630949308905e+02 3.0644085294064634e+00 3.4565432524070957e+02 -3.0302444361019631e-01 5.0082882229640018e+02 -4.2626501461281286e+01 -3.7337303124399099e+01 1.9927808564008592e+02 -7.1476248539983844e+00 -1.4086562673762694e+02 6.1092003376197956e-01 7.2128638270459092e+01 -5.0029941108875597e-01 2.9083855310441550e+01 -3.3414517996335668e+01 4.4468555203344238e+00 -1.0353386006122485e+03 2.2436651624243180e+00 6.3266527461781152e+01 -2.0570958203561907e-01 -6.4850037999950177e+02 4.7535820637966320e-01 -1.8876739857133174e+02 3.0166954264805433e+01 -4.3289970135252913e+00 -1.1853642457928290e+03 1.9300804638563251e+00 5.9979718910259942e+02 6.0379594541945396e+00 -7.2692377757849044e+02 4.3596765801797072e-01 5.5591283872679935e+02 -1.2922626322292325e+02 -2.3991883372385672e+01 1.5334191934146270e+03 -6.2226984739565587e+00 -8.7826002264627050e+01 1.2239157915698158e+00 -2.3009105073151466e+02 -1.5537012451384768e+00 8.9198270839762955e+01 -1.1674016187783316e+02 5.1564040644506761e+00 -1.9177482616150800e+02 4.3331513961839061e+00 -5.3650661811265486e+01 
      </Row>
      <Row Index="14">
        2.4549224625110219e+02 -2.0418415972768287e+00 8.6229164904638480e+02 -1.4886985080382612e+01 4.4093786747427657e+01 -1.1515420470541085e+02 -2.3268427199725863e+01 -3.1285115116253559e+02 3.5347315228768444e+01 6.1213986146237175e+01 -5.6154798623732711e+00 -1.2394734840214858e+03 5.5607903301963302e-01 -4.2626501465383626e+01 1.5091453209124643e+02 9.5636008591766668e+00 -1.4966663778918155e+02 -2.2087605623442780e+01 7.1229408133310073e+01 1.2359742163347189e+00 1.2767985687899525e+02 8.4427618425783635e-01 -2.0683676461267169e+00 -4.6925800996225782e+01 -1.5683800015777084e+01 7.7023181527623478e+02 8.7822312494549160e-01 5.8196239813220018e+01 -7.2258041262614897e-02 -1.0216094408616451e+02 8.8504284910072362e-01 -1.9610273818425372e+02 -3.6993171537538437e+01 -5.7677138474425087e+00 -1.9520175309515616e+02 -2.3320530543457045e+00 -1.3362786793427821e+02 -5.6204957741008581e+00 -2.0418823476595835e+03 -1.2601073092007729e+01 -1.7675376083953921e+02 8.0959970265455013e+01 -1.1475724900909370e+01 -1.2253178703088624e+03 2.0065833662217052e+01 -1.1086798702221899e+03 -7.2991764279115330e+00 -1.2359611532511781e+02 2.3631672128991909e+01 4.1930066312952732e+01 -8.5504995388755077e+01 -6.0794721581369089e+00 -7.3135258586725649e+02 1.4556895471935722e+01 -4.1361161476421569e+02 
      </Row>
      <Row Index="15">
        3.1186329333155300e+01 -8.7893526147349554e+00 -4.4455881289680917e+02 7.2469708615049244e-01 -2.4884424881596715e+01 1.6893972472345689e+02 -4.8700967353184154e+01 -1.2759017604681526e+02 1.2490729921482224e+00 -8.4856607060326780e+01 3.0661508950885241e+00 -2.1409479039488500e+02 1.1903232349017014e+00 -3.7337303124832033e+01 9.5636008507264272e+00 1.7798201316797625e+02 -1.9599886592932853e+02 -2.9850488582225188e-01 -7.7019721944679361e+02 -1.8675084350166427e+00 -1.4054536744673604e+02 -9.7053322966466737e-01 7.3723029273261545e+01 3.7237540098956696e+00 -1.1597834429335896e+02 5.5794254216404136e+02 -1.0422202272162894e+01 5.1030220882232243e+01 -6.0663827810295545e-01 2.6125724954820220e+02 -1.3091955787398929e-01 -1.0110237837125675e+02 -8.7480397855034333e+00 -4.6797035648575495e+01 -2.7972146177289687e+00 -4.0665411173430863e+00 9.3435584108048783e+02 -5.9762884545330284e+00 9.0144444533232695e+02 1.0540228574287975e+00 -7.7818961922580712e+01 5.6268996307650525e+01 9.9645186272956721e+01 -8.3534817933135514e+01 -3.9578950348258672e+00 2.8770087704527086e+01 1.0804626089157569e+01 2.5812788143749486e+01 -3.3709122153726838e+00 4.7185963814438736e-01 9.0545182644579810e+01 -3.3707953256777898e+01 -1.1220464259497744e+02 1.2252110022707631e+01 6.9527049915456899e+01 
      </Row>
      <Row Index="16">
        -8.9480304070427082e+03 7.7638834797902291e+01 2.5710681271419508e+03 -8.7003183625423262e+00 3.2468795600545127e+03 -6.1189681750978525e+02 3.0791788505045406e+02 -2.1606703520524403e+04 5.1323672265526934e+00 -3.8898451593738773e+03 -5.2556813963481019e+01 3.5488937077089477e+03 1.4546985553038887e+01 1.9927808565250598e+02 -1.4966663797922558e+02 -1.9599886595228125e+02 1.6051117249262985e+04 9.6989139928195442e+01 2.0167605964468719e+03 3.4033922052474253e+01 -1.4551225609663859e+03 7.8981585923803550e+00 3.3965009117382579e+00 -1.3406459963557654e+02 -5.5959185179587314e+02 7.7622870133833685e+03 5.0456469491999457e+01 2.1423499667765573e+03 7.1043561848262300e+00 -7.0747238434278256e+02 3.0561441042980686e+00 -2.3700949302881618e+03 -5.2175829320501350e+00 -1.6684265482406164e+02 3.2520741289563011e+03 3.3212692341686861e+01 -1.0944684095506324e+04 5.2754282655898891e+01 -4.0007773574044268e+02 1.2714864165441730e+01 -6.9774805025707701e+02 -5.1690859716838895e+02 -3.8444996281469912e-02 -2.0147219796514426e+04 1.7760399918234643e+01 5.6890993107636518e+02 -1.4393583266262522e+02 -4.7207431849678924e+03 1.4735500443957790e+01 4.4316419626409936e+02 -3.8619705052171884e+02 -1.4277448595427632e+02 -7.6795905930859026e+03 -2.4320896166281483e+02 3.6840881761841883e+03 
      </Row>
      <Row Index="17">
        -1.1534099846464369e+02 -1.6341029201469706e+00 -2.2117845445812878e+02 3.3176029317427420e+00 -1.4801123404426903e+01 2.3819986121781120e+01 3.5974806797826071e+00 3.0392216292477366e+02 -2.4854528591958882e+01 -6.9808898902540577e+01 2.8127568647607375e+00 3.9219241553567974e+02 6.6256059514424459e-01 -7.1476248538129994e+00 -2.2087605620953571e+01 -2.9850488536360187e-01 9.6989139956254235e+01 2.0636919473714265e+01 -6.8564511984703316e+01 -1.4225272563123508e+00 -2.3884296563377497e+01 -5.4025396306638940e-02 -2.0104572910736152e+01 9.6987764084354247e+00 -1.0884578057271117e+01 -9.5767133902580213e+01 -1.1628553747513164e+00 -3.2517005756776712e+01 -3.1793115142082345e-01 1.0658093279056480e+02 -1.7633743441792621e-01 9.9588619403808671e+00 -4.6944628346534500e+00 -3.5929321847348312e+00 1.4787817226300854e+02 2.3196394101442097e-01 5.4690859191414575e+01 5.1425143968556364e-01 4.9161971154902881e+02 3.4213230207269167e+00 -3.6365036262268589e+01 -1.5776042089972332e+01 3.4963249271048076e+00 3.0590547863145014e+02 -1.0802427078762433e+01 -2.4656151805200686e+01 4.9347526639682213e+00 1.0601818319359664e+02 -6.0886563209294629e+00 -1.3798317791693012e+01 1.3176927812278509e+01 -2.4482752604264100e+00 6.7986129768844322e+01 -8.5784674216413332e+00 4.4471905511555914e+00 
      </Row>
      <Row Index="18">
        -1.1175080612613121e+04 4.5204412789498747e+00 -3.2121618034298808e+02 -2.2460710924375690e+01 -4.8977869629673660e+02 3.4193762440368255e+02 3.7446422823560533e+02 -2.1415105803974617e+04 7.1847911211612811e+01 3.4744403536259379e+03 9.0755628907851271e-01 -6.8897054053239231e+02 -2.7740999820277779e+00 -1.4086562668578699e+02 7.1229407974013398e+01 -7.7019721958866683e+02 2.0167605925672688e+03 -6.8564511952697615e+01 1.6388314533353565e+04 2.9364464451002878e+00 7.8471542077916439e+01 9.2108646289375429e-01 2.3979006344807567e+02 1.9374472301271666e+02 3.3047932222713126e+02 7.2119876968011959e+03 2.2423643780905266e+01 2.9046893294191686e+03 -3.7947110069100631e-01 -1.9741625017982534e+02 -1.0409720553937296e+00 1.4104878421484254e+03 7.7649521992276874e+01 1.6062363787949471e+02 7.5039564262134954e+03 1.5719580992434896e+01 -3.1218224969543939e+04 1.2272046140633850e+00 1.1443202416227728e+03 -2.0341566622336863e+01 6.1025134924108568e+02 3.6572730929485988e+02 -2.6575995664845527e+02 -1.8970973934681133e+03 5.2481634619018195e+01 1.6696059911639270e+04 -1.0053966741653539e+01 -4.0292154649204422e+03 3.5470275548621430e+01 -1.5802431682064730e+02 1.7788999667687810e+02 1.2917041902272319e+02 6.7779630865290010e+03 2.2768443774821549e+01 5.7612915785607702e+03 
      </Row>
      <Row Index="19">
        -6.4183666920698670e+00 3.6945713923025609e+00 2.0839583029464723e+01 -5.2003987640333138e-01 3.9625354726010755e+00 -5.4053916751003008e+00 3.0976444973718760e+00 -3.7739679165151401e+01 3.8591970600417813e+00 -1.1852523353005655e+01 -2.8305183497559074e+00 -1.9072782603704255e+01 3.2472382338482798e-02 6.1092003396765904e-01 1.2359742170153076e+00 -1.8675084351269855e+00 3.4033922051559102e+01 -1.4225272563873332e+00 2.9364464386653406e+00 1.2501037815422151e+00 -1.3664324702238535e+00 2.5174090541660199e-02 -3.2539032071277916e+00 -2.4717127226223088e+00 -1.8576493727537633e+00 8.9865370561107056e+00 1.4689339630086202e+00 1.4945112101119093e+00 2.7368680818948715e-01 -4.3227625237152481e+00 1.9221067075960607e-02 -4.7908362205124870e+00 -8.5211357284101164e-01 -9.2009716235412142e-01 -1.1274059201759428e+01 5.2084143802875960e-01 -6.0635806314698137e-01 1.7466929806970464e+00 -4.4546922112260518e+01 -4.3773070848206524e-01 -4.5994386216436105e+00 -1.2038753014071304e+00 8.7890144421080474e-01 -8.4397903723548666e+01 2.1303645205627522e+00 2.8304456370817466e+00 -5.2870446231174784e+00 -9.4648053401169250e+00 5.9675546165452786e-01 1.2009469905076005e+00 -2.2388218378599047e+00 -7.9448876343265029e-01 -1.0912609336072284e+01 -4.6663464406617550e+00 6.7316528832297928e+00 
      </Row>
      <Row Index="20">
        1.2419928245529300e+03 -9.2772210492679505e+00 5.2233441444642813e+03 -3.9817262763762628e+01 2.7313737822941039e+02 -1.3884042421612014e+03 1.0077774714010047e+01 4.8805140690143371e+03 1.3371658721229741e+01 2.7344514910937323e+02 5.2192368009503962e+00 1.7461020893242596e+02 -4.6770747927563345e+00 7.2128638275375124e+01 1.2767985681772009e+02 -1.4054536746977368e+02 -1.4551225625816733e+03 -2.3884296555688138e+01 7.8471542457702981e+01 -1.3664324760329827e+00 1.2774748978751534e+03 9.1077279970007794e+00 -3.9303191401620279e+02 -1.8290795093934139e+02 2.8012842872803697e+02 -1.6786975053384085e+03 4.1379012849802752e+00 -6.0278216135705588e+02 -2.0632667946706817e+00 -1.6744850697799743e+03 2.6348649102147021e+00 -3.1261467890209502e+01 -1.2644525880065130e+02 9.8703268131429013e+01 1.5678515501739457e+02 -3.4860732124348215e+00 2.0484144837959011e+03 -5.9372494611618887e+00 -6.1445083079977157e+03 -3.4189949059940304e+01 1.6941403041148078e+01 -4.0800731497838933e+02 -8.1941021252674645e+01 3.4408023262180245e+03 9.6645907183361075e+00 1.5552644720037238e+03 9.5426966319320172e+00 -7.8568088790053662e+03 7.2037672742881341e+01 1.3153044505176516e+02 -8.5941054776503677e+02 8.6896977272979939e+01 -2.3737279483035800e+03 2.7283713067914977e+01 -2.9384571954563394e+03 
      </Row>
      <Row Index="21">
        -7.9338609514707059e+00 -1.1326837018932423e-01 4.9175182780775970e+01 -8.0134996722824137e-01 7.9412370427967289e+00 -1.3123675874197540e+01 7.0907093638400198e-01 1.1627250031248478e+01 2.3993343055401320e-01 -3.3508871431538836e+00 -3.9528813158412723e-02 9.7637671501127699e+00 -1.4546360061960676e-02 -5.0029941108527964e-01 8.4427618406147864e-01 -9.7053322970678502e-01 7.8981585876349527e+00 -5.4025396294845318e-02 9.2108646477010847e-01 2.5174090516831844e-02 9.1077279969825753e+00 1.7550238175202848e-01 -1.7662353546685381e+00 -1.3314503912709057e+00 2.1223497411395229e+00 2.4623746499523804e+00 2.1559288348846260e-02 -1.3894490866819069e+00 3.7200238725558221e-03 -1.5621195461824588e+01 4.2369075711429414e-02 -5.1535363286973848e+00 -1.1131928246367209e+00 8.5916804928151791e-01 1.3350033475554483e+01 -1.5720869293192413e-02 -4.4647132223834447e+00 -1.0796075893708262e-01 -7.3822440133022369e+01 -5.5715837773207921e-01 -1.1697110312534278e+00 -4.5030475568307651e+00 -7.9372965749293867e-02 8.2972508927117872e+00 1.2641716194503713e-01 -5.3870527245432509e-01 -1.3150022008946172e-01 -3.1677461410317783e+01 1.3938327859571453e+00 2.0323223987341197e+00 -8.4893833823685263e+00 7.1357607357542829e-01 -1.2442088172724276e+01 -1.6683314111177164e-01 -1.1434155961029763e+01 
      </Row>
      <Row Index="22">
        -1.9335286835233856e+03 -1.6295967785094945e+01 -8.9232597941094127e+02 4.7678101641932038e+00 1.7206072464858880e+02 5.2832276340794215e+02 -1.2101600317323721e+02 -3.0284344356641050e+03 4.0132203946584625e+01 3.3632106816514397e+02 5.9510420026871520e+00 -7.6087815598124007e+02 2.2104646797279410e+00 2.9083855309741921e+01 -2.0683676520384262e+00 7.3723029272780224e+01 3.3965011009422597e+00 -2.0104572911389564e+01 2.3979006356177746e+02 -3.2539032056677026e+00 -3.9303191401287268e+02 -1.7662353547482610e+00 8.5324549373529590e+02 6.6948413068053924e+01 -6.7968236667658488e+01 2.7919579131764185e+03 -1.3827461520101934e+00 7.2707710154110828e+02 9.7504822416580694e-01 8.7255878801817289e+01 -3.1300830965901333e-01 6.2116113713501534e+01 1.2285254499601459e+02 -2.8407391708776572e+01 -2.8838214666492422e+02 -3.0331956046019837e+00 -3.3694098405659238e+03 -1.2781659756970619e+01 1.6349926646533845e+03 5.4441168287444714e+00 8.4235245713987933e+02 2.4065818219633911e+02 -3.3545718122274565e+01 6.6494141057605475e+01 2.5605916956370926e+01 2.7837965729481061e+02 9.7587957200374547e+00 1.4981846650667835e+03 -7.4556188815117821e+00 1.4859835662443231e+01 3.3523327817685669e+02 -2.1727438793359099e+01 5.4703427215767761e+02 2.3212193844751660e+01 8.2094802816669539e+02 
      </Row>
      <Row Index="23">
        -3.7272876655270375e+02 -4.4706150774350419e+00 -1.5687530385943091e+03 3.1597742076958069e+00 -3.4009691163247771e+02 4.6745453306895882e+02 9.0150586428857764e+00 -3.0786590190853531e+02 -1.3764413675244139e+01 1.1923314764182817e+02 5.0150717594374212e+00 6.0795847763255779e+01 4.8900051665129290e-01 -3.3414517996421637e+01 -4.6925800993806384e+01 3.7237540111778760e+00 -1.3406459951251964e+02 9.6987764083859815e+00 1.9374472299644538e+02 -2.4717127220642365e+00 -1.8290795095569126e+02 -1.3314503913037186e+00 6.6948413070437709e+01 9.2631654169790352e+01 8.3663706675717382e+00 1.8489707560594616e+02 -1.6341023012372897e+00 6.2896286646337103e+01 -3.3614209748923018e-01 6.2551736928370224e+02 -6.8257448126142606e-01 3.0316888453398400e+02 2.7973548806982169e+01 4.7745980206241256e+00 3.3524613194062476e+02 2.5408018150269279e-01 -7.9297030911188926e+02 -1.6073303563878674e+00 2.5560481471321077e+03 3.0820518527190037e+00 6.9226287289649235e+00 1.7219871643092142e+02 8.6431915414767602e+00 7.0747260392008172e+02 -6.4919762156513761e+00 1.4101342373912203e+01 7.7776104714672982e+00 7.4517526697024095e+02 -9.0085786110065698e+00 -1.1243542580764290e+02 2.7476574961123839e+02 9.8193569953153848e-01 3.6232426571428852e+02 -2.3175952924616472e-01 1.3349948982581552e+02 
      </Row>
      <Row Index="24">
        -1.9690312813734636e+01 -4.6526194511473165e+00 4.0532509958410157e+02 1.1812090772969331e+01 -1.6589997553332068e+01 -2.6502149887051877e+02 4.7942709558576269e+00 4.4188742963647746e+02 3.7803301649543086e+00 3.4206932433621466e+02 3.2832412378171987e+00 1.3898902503894416e+02 -2.1368994935317134e+00 4.4468555215680681e+00 -1.5683800015348606e+01 -1.1597834429865809e+02 -5.5959185197888291e+02 -1.0884578055154719e+01 3.3047932209284386e+02 -1.8576493726601795e+00 2.8012842866826912e+02 2.1223497409183913e+00 -6.7968236667910787e+01 8.3663706721839617e+00 2.4851168305728561e+02 -2.0931845353056633e+02 4.0614271268359170e+00 -7.6874099232494700e+01 -5.4440268626084753e-01 -2.1109670403502233e+02 6.7180715871898722e-02 6.1398761390373849e+01 -2.9295059247186543e+00 8.4221641074943619e+01 3.4714861400919472e+02 5.5948140547462044e-01 -5.2296991311224542e+02 -3.9751644061316402e+00 -8.8987389934051487e+02 9.8764596122639237e+00 2.4467868813875612e+01 -8.3738527184611257e+01 -8.7583340672490834e+01 1.0339063010030136e+03 5.6898658285810972e+00 5.7533395542604478e+02 6.6646608585376512e+00 -1.4630889119381669e+02 -1.2482061870646575e+01 4.1264897851036437e+00 -1.3659990381150078e+02 6.4705921638149775e+01 3.8727335612110380e+02 1.0030925450029278e+01 1.6496063831860860e+02 
      </Row>
      <Row Index="25">
        -2.3547879686368397e+04 1.0526547469655242e+01 -3.3145934048918680e+03 5.2285610295037252e+01 1.8221623921014834e+03 1.6132118346408474e+03 -4.2234714612479002e+02 -4.9352670147193130e+04 3.6244339306739283e+02 3.4098772014844944e+03 -8.6180584854909000e+01 -9.9825760321501148e+03 2.5945609797291880e+01 -1.0353386005973443e+03 7.7023181502384205e+02 5.5794254210266286e+02 7.7622870125423651e+03 -9.5767133916292778e+01 7.2119877007221858e+03 8.9865370615999467e+00 -1.6786975039794852e+03 2.4623746532604400e+00 2.7919579129747581e+03 1.8489707550949970e+02 -2.0931845332155353e+02 3.6674335663631675e+04 1.8318621538362020e+01 6.9330796034559608e+03 -3.4450820912601898e-01 3.9029426044942479e+03 1.8038837584510654e+00 -3.1980906749245669e+03 -1.3992305154546955e+02 -1.3635288889265121e+02 9.4968607335325796e+03 -7.7013582316694738e+00 -4.1963342679017318e+04 -5.5827352669934925e+01 4.0491269262078490e+03 6.9512819659479860e+01 -1.3577397912755005e+03 1.3744906669457559e+03 1.9205543214293209e+02 -2.7454704130695893e+04 2.6680876607041995e+02 5.4600422082809819e+03 -1.1580866053029672e+02 -7.5309696753479670e+02 -8.5289571238147801e+01 3.6045405814812557e+02 9.7546439343547536e+02 -5.5909582605881525e+01 -3.3614448792171088e+03 -2.4549944291098598e+01 6.4226813658531464e+03 
      </Row>
      <Row Index="26">
        -5.2019828911856621e+01 5.9353899234623180e+00 1.3565015984788479e+01 -5.1770483703451264e-01 -3.9569238012427377e-01 -4.0883886163877996e+00 2.8021075702441953e+00 -7.0534314315427537e+01 5.1158037283839066e+00 -3.9949143540787304e+00 -4.0865750048963063e+00 -1.3913967542479043e+01 4.7038092859575768e-02 2.2436651627526771e+00 8.7822312664996427e-01 -1.0422202272284654e+01 5.0456469492562746e+01 -1.1628553748149184e+00 2.2423643759801109e+01 1.4689339630170402e+00 4.1379012906947441e+00 2.1559288379103814e-02 -1.3827461540306274e+00 -1.6341023019149254e+00 4.0614271261363513e+00 1.8318621528449967e+01 4.4062217768306944e+00 4.3293852757358309e+00 5.1412865589973733e-01 -2.0444104617315872e+00 1.5515762375866743e-02 5.5183491976869625e+00 2.0460315999198020e-01 1.5458033184063638e+00 3.0771829951443124e+00 8.9509671696020465e-01 -8.9979508599249755e+01 2.7126925906759336e+00 -4.6436022222772891e+01 -4.6749882136187709e-01 1.4339903197406976e+00 3.6998647911580917e-02 -4.4313961027105053e+00 -7.0101176183356898e+01 4.0966019485990888e+00 1.9955260249284708e+00 -9.0006103587395607e+00 7.2471658428534589e+00 5.4084612402552690e-01 -1.5520136232246129e+00 -8.4480701051046747e-01 1.5940296812725998e+00 4.1977709451513681e+00 -8.6381338040690832e+00 7.0381083261572588e+00 
      </Row>
      <Row Index="27">
        -5.2432177487171430e+03 4.1035585529939880e+00 -1.1273427774575205e+03 2.2248869438390436e+01 5.5876452433821396e+02 3.9614820715589508e+02 -6.7711654634200954e+01 -1.2614223737627952e+04 7.0782644345419783e+01 8.0564885090585130e+02 -1.1625427204118564e+01 -1.5443222718515908e+03 4.7989024208577469e+00 6.3266527460145880e+01 5.8196239802063815e+01 5.1030220885508243e+01 2.1423499670652673e+03 -3.2517005761573166e+01 2.9046893298269924e+03 1.4945112109962011e+00 -6.0278216112682685e+02 -1.3894490860234896e+00 7.2707710151455103e+02 6.2896286629589213e+01 -7.6874099222234690e+01 6.9330796038048284e+03 4.3293852762211849e+00 1.9754210008650844e+03 1.0302178547663878e+00 4.0741237587213186e+02 -4.8880189786764161e-01 -6.1198663725363201e+02 6.4892699863948152e+01 -3.8916194471236167e+01 1.1538242096214381e+03 -5.1183803293838537e-01 -1.1444921750543628e+04 -5.7262083924366411e+00 1.4156795311807966e+03 2.2873730491646551e+01 3.5851015620319731e+02 2.0922931214193341e+02 9.1145626285077377e+00 -5.1726511958829979e+03 4.3112138409397758e+01 -5.7249840781859029e+02 -1.8474119162219097e+01 1.1191757097460759e+03 -3.4964987711072695e+01 1.1870982726491394e+02 2.6657903604593946e+02 -1.3308527525383823e+01 -6.7370747719980727e+02 6.0428787522712266e+00 7.6184778556629010e+02 
      </Row>
      <Row Index="28">
        -3.0089046844717586e+00 9.0485900653190399e-01 -8.1241407611391736e-01 6.4477499248896536e-02 1.8488352148127660e+00 -3.2183154906106348e-03 4.6810619870974679e-01 -1.3165770758663257e+01 1.0121628652237993e+00 -2.6962585352640751e+00 -6.9296915439172957e-01 -2.8589126366156563e+00 1.1921250414048705e-02 -2.0570958199556344e-01 -7.2258040909539911e-02 -6.0663827808652071e-01 7.1043561864242406e+00 -3.1793115144036921e-01 -3.7947110459393585e-01 2.7368680819333374e-01 -2.0632667936278719e+00 3.7200238778217209e-03 9.7504822383943690e-01 -3.3614209760788949e-01 -5.4440268643835310e-01 -3.4450820943425242e-01 5.1412865590001855e-01 1.0302178548843131e+00 1.2799666770618462e-01 -2.7310490873922291e+00 -1.1997387631037339e-02 -8.2007050312014518e-01 5.3780656222593315e-01 -8.6458243209148300e-02 -4.8450697882440750e+00 9.7220743244961216e-02 -2.5661797876650922e+00 4.0361223593265583e-01 -1.0450520120909230e+00 4.9369331675369242e-02 1.6989660832331808e+00 -2.0567671288463352e-01 -3.7545835498703606e-02 -1.5718425371310886e+01 5.9866734320482273e-01 -3.2871823703636913e+00 -1.4297014052293142e+00 6.9714533103883518e+00 -1.4022070106425133e-01 5.3559508232162123e-01 5.0255244251560116e-01 -1.5393144669760317e-01 6.5660800679428011e-01 -1.2880255842092372e+00 2.1309055804668340e+00 
      </Row>
      <Row Index="29">
        -2.8041301604280015e+03 3.9061511829507140e+01 -1.4682852072678939e+04 3.2551565909109542e+01 -3.9158244394570356e+03 4.1058594622262954e+03 1.0917469181868637e+02 -3.2893053156491951e+03 -1.1036441704685399e+02 5.6233928089623623e+02 -2.3671872744518801e+01 -2.3079190064849035e+03 1.0441175516000090e+01 -6.4850038000370841e+02 -1.0216094404998438e+02 2.6125724957568582e+02 -7.0747238234046381e+02 1.0658093278012606e+02 -1.9741624997828706e+02 -4.3227625169687514e+00 -1.6744850696196081e+03 -1.5621195461133595e+01 8.7255878794429009e+01 6.2551736925456316e+02 -2.1109670408495003e+02 3.9029426062491839e+03 -2.0444104554379692e+00 4.0741237609260133e+02 -2.7310490865159878e+00 7.6233322155389760e+03 -7.0228636816468457e+00 2.0382134238109734e+03 -6.0434702747802689e+01 -6.5158731523312781e+01 2.4550016195139033e+03 -3.2691410995635124e+00 -4.0245619288170733e+03 1.7547684879333531e+01 2.0547279267365058e+04 2.9671628984013200e+01 -1.7410677533759954e+03 1.6853989799771462e+03 2.5592262146663455e+02 -4.3339148953725544e+02 -4.7892096027364595e+01 -1.7581031293814849e+03 -2.4380956710113310e+01 9.1787965558680517e+03 -1.0735352262829770e+02 -1.0766729854892792e+03 2.4453450018962571e+03 -9.1479950510485082e+01 2.5931163936938819e+03 -7.6715898722059208e+01 2.5866341151401880e+03 
      </Row>
      <Row Index="30">
        1.9796092287581359e+00 -3.6066424316876455e-02 1.9418129547229910e+01 -5.9026967222228999e-01 4.5668010343422338e+00 -3.6816823689536626e+00 -6.4472419793626834e-02 6.4330681133542384e+00 2.6164274289315004e-01 -1.3744168077599781e+00 -3.4410787180330568e-02 -4.4149852810438723e+00 -2.9593328567117157e-03 4.7535820636221615e-01 8.8504284894525609e-01 -1.3091955785500264e-01 3.0561441037648365e+00 -1.7633743443007485e-01 -1.0409720525967028e+00 1.9221067066598638e-02 2.6348649106234845e+00 4.2369075712484272e-02 -3.1300830958718961e-01 -6.8257448127938858e-01 6.7180716004756391e-02 1.8038837591450374e+00 1.5515762360787999e-02 -4.8880189804617658e-01 -1.1997387634178971e-02 -7.0228636823217130e+00 3.7905433250343734e-02 -2.8509582120173063e+00 -1.3518912853137177e-01 -3.9484614506626770e-02 -2.0811176836824643e+00 -1.1844925080431778e-02 4.4440164439445500e+00 -4.6316297643353800e-02 -3.1276884021562573e+01 -4.5412115121840690e-01 -6.8553767236508634e-02 -7.2722743401041967e-01 -6.8718440027338124e-02 -7.1833301974509371e+00 1.4383703520271407e-01 -3.9113932799748596e+00 -5.5652570057680206e-02 -1.0756228120537784e+01 9.9371530377868122e-01 9.3477318822131217e-01 -2.5205130526578428e+00 3.5684581774354657e-02 -8.1741949375265062e+00 8.4322483054952338e-02 -4.4190014174456591e+00 
      </Row>
      <Row Index="31">
        1.3220845912042423e+03 -2.0928755857216856e+00 -4.3305284854353467e+03 -3.8235651616358567e+01 -3.2875818064657506e+03 1.7614686836480957e+03 2.3065019837435784e+01 4.8238613295273681e+03 -4.3090396088475813e+01 4.7392370080233559e+02 2.0202238817276726e+01 -1.5059982509359463e+02 -2.4924602403312726e+00 -1.8876739857692155e+02 -1.9610273814582033e+02 -1.0110237835058251e+02 -2.3700949290390126e+03 9.9588619367905302e+00 1.4104878419099505e+03 -4.7908362164537621e+00 -3.1261468082852389e+01 -5.1535363292001080e+00 6.2116113757612766e+01 3.0316888453484171e+02 6.1398761339571138e+01 -3.1980906738337362e+03 5.5183492016705884e+00 -6.1198663706186926e+02 -8.2007050231941392e-01 2.0382134241199528e+03 -2.8509582117633698e+00 3.9031827151853913e+03 1.3704902850238227e+02 1.7820880394416008e+01 5.0985949615071877e+02 4.8518602615035888e-01 -2.9578000712310381e+02 1.0941969365220869e+01 3.9444292093798690e+03 -3.8034828179431152e+01 8.8106721836332781e+02 8.5861036572252306e+02 -7.2170331919563409e+01 6.6348760264921248e+03 -2.8955541560801350e+01 -1.1486113937261302e+03 1.9629130576137470e+01 5.6815279695731733e+03 3.6949297515859030e+01 -9.1929211586012048e+02 1.0860685115218275e+03 6.3298806739803126e+00 2.7897659435230744e+03 1.6545430220773891e+01 1.3323665176034499e+03 
      </Row>
      <Row Index="32">
        -3.8887313615086896e+00 -4.5260130517669204e+00 -4.5071727885441169e+02 3.8204480456142442e+00 1.5468808265137341e+01 1.7232575941825280e+02 -1.2930044654613610e+01 -2.0596170357013216e+02 4.5953439752930194e+00 3.6614539500194951e+01 3.6334749548596523e+00 3.7233984047072028e+01 -1.1845673761604308e-01 3.0166954264863307e+01 -3.6993171538670104e+01 -8.7480397859227992e+00 -5.2175829161969887e+00 -4.6944628344739279e+00 7.7649521999151631e+01 -8.5211357259617970e-01 -1.2644525880793498e+02 -1.1131928246694081e+00 1.2285254499650455e+02 2.7973548807418410e+01 -2.9295059249963060e+00 -1.3992305153249981e+02 2.0460316038601789e-01 6.4892699867012198e+01 5.3780656229401647e-01 -6.0434702737758244e+01 -1.3518912855071297e-01 1.3704902850323663e+02 6.4871271279008326e+01 -6.6414441218584415e+00 -2.9632119810609947e+02 6.1756067312461482e-01 -1.7822601454244571e+02 -2.1198852317801493e+00 9.3141235813984622e+02 2.7960237286579868e+00 2.6118239806826591e+02 5.0318633206607046e+01 -1.6867911152753713e+01 2.1162143311423756e+02 2.2557552637258702e+00 1.1367616050376819e+02 4.3116689993534187e+00 2.4834090821147760e+02 -5.1582566414185038e+00 -1.7567595165749566e+01 1.1894426278775829e+02 -1.8415184952605337e+00 1.4070326514897994e+02 5.5147853798068951e+00 9.2130060794236371e+01 
      </Row>
      <Row Index="33">
        -8.2597435986172059e+00 -1.4750018593942649e+00 1.2443488627377667e+02 3.2679482248477605e+00 -4.4283648908822215e+00 -9.0749577830719559e+01 5.7294485711132737e+00 2.2573597240373510e+02 5.1144060578293704e-01 1.2753907814901984e+02 1.3233546176346449e+00 6.6751898084796849e+01 -8.9695998171842339e-01 -4.3289970129908397e+00 -5.7677138477198238e+00 -4.6797035650670509e+01 -1.6684265489738937e+02 -3.5929321839507971e+00 1.6062363783540408e+02 -9.2009716233596772e-01 9.8703268110843112e+01 8.5916804920607248e-01 -2.8407391709082049e+01 4.7745980222071864e+00 8.4221641075397429e+01 -1.3635288897393639e+02 1.5458033186498898e+00 -3.8916194476153578e+01 -8.6458243147829572e-02 -6.5158731507850462e+01 -3.9484614556515973e-02 1.7820880412391290e+01 -6.6414441217725653e+00 3.9893916340595851e+01 1.5455686101547144e+02 2.4027558570224983e-02 -2.1773537498742195e+02 -1.3017743618233717e+00 -2.5689412185956229e+02 2.8060494585702749e+00 -1.1792560343842496e+01 -2.9190145544057771e+01 -3.5032687787932112e+01 3.8327474181854473e+02 1.4534086545220606e+00 2.2497638418614591e+02 2.5958007881006289e+00 -8.6823643968292600e+01 -2.9272080406930883e+00 2.5112258598602386e+00 -4.8933853452010382e+01 2.3622564991849622e+01 1.2595842683250606e+02 3.6985416812220127e+00 5.2017087860315527e+01 
      </Row>
      <Row Index="34">
        -1.7467352534795296e+04 -4.5158097433337389e+01 -4.2156209030931250e+03 5.6015943879391756e+01 -3.4024583231715951e+01 3.4894942019004009e+02 5.9485778669375190e+02 -1.3822694309255312e+04 -1.4700358674405061e+02 1.2968037885394051e+03 1.2407709854919087e+01 8.1982548434611454e+03 1.3597751698889709e+01 -1.1853642457411042e+03 -1.9520175305938426e+02 -2.7972147302616577e+00 3.2520741254729801e+03 1.4787817231068954e+02 7.5039564228984154e+03 -1.1274059197633420e+01 1.5678515367639102e+02 1.3350033471390532e+01 -2.8838214668172441e+02 3.3524613202408636e+02 3.4714861398424728e+02 9.4968607290859218e+03 3.0771830125913198e+00 1.1538242094303278e+03 -4.8450697839449788e+00 2.4550016205691500e+03 -2.0811176861211820e+00 5.0985949718865322e+02 -2.9632119811098255e+02 1.5455686099742138e+02 2.0089695671677473e+04 1.2784842168849991e+01 -2.6231336757441859e+04 -3.9895048314342255e+01 1.0287827748870586e+04 7.2315735593650231e+01 -1.8506607427426216e+03 -8.1371177021297626e+01 5.0971038862558760e+02 1.0928596687894089e+04 -4.2249798321382826e+01 1.4413356995082482e+04 2.6935544529816070e+01 -1.7300447130108041e+03 -8.5974800974970549e+01 -2.5120814680742603e+02 2.6699392673151067e+01 1.1428658970810068e+02 1.1054433126832842e+04 -1.6890265861063065e+02 1.5898296599871589e+03 
      </Row>
      <Row Index="35">
        -2.6911551424048412e+01 1.6586647831098225e+00 -1.3387352257993498e+01 3.1460340244222579e-01 6.1010956832469674e+00 4.4299222167838659e-01 3.7311634537782261e+00 -1.4256093228219925e+01 8.6671987544170381e-01 -5.8954577216213266e+00 -1.1127952112421267e+00 2.8908356476099190e+01 2.9031865500436072e-02 1.9300804640674869e+00 -2.3320530541362601e+00 -4.0665411176310222e+00 3.3212692336596774e+01 2.3196394102163825e-01 1.5719580987825456e+01 5.2084143804851402e-01 -3.4860732100101082e+00 -1.5720869282807470e-02 -3.0331956056138552e+00 2.5408018120452880e-01 5.5948140555875625e-01 -7.7013582400827545e+00 8.9509671700179583e-01 -5.1183803382605220e-01 9.7220743251383135e-02 -3.2691411032992050e+00 -1.1844925079491364e-02 4.8518602425839674e-01 6.1756067296290240e-01 2.4027558602277566e-02 1.2784842169995500e+01 6.4031117513038538e-01 -3.5562151308279297e+01 8.4220425778655783e-01 3.6546464422930903e+01 2.9319840346396348e-01 1.2112109516071570e+00 -2.3838936701675948e+00 -1.5004809494816995e-01 -9.8485311390139287e+00 8.1385731356960267e-01 2.9750206800266596e+01 -2.3998356207926097e+00 -3.0301226863244075e+00 -5.0151810682747566e-01 3.1470093487852946e-01 6.4994394343138395e-01 1.6742023255467384e-01 7.6563472515175208e+00 -3.0799040066717138e+00 1.7280311825718591e+01 
      </Row>
      <Row Index="36">
        4.5949952201066539e+04 -1.9438428338095036e+01 1.1355363132801518e+04 -9.5845181305461665e+01 -1.0493127112891525e+03 -2.8136297372147965e+03 -5.9160886615109484e+02 7.1470093535584398e+04 -2.5695478042003197e+02 -7.4190000694739283e+03 6.2103013477500973e+01 7.9627641913448770e+02 -2.9132548973869916e+01 5.9979718937352300e+02 -1.3362786912629963e+02 9.3435584028635640e+02 -1.0944684118027799e+04 5.4690859364030842e+01 -3.1218224965240399e+04 -6.0635803429397583e-01 2.0484144818593559e+03 -4.4647132338341180e+00 -3.3694098410651786e+03 -7.9297030900626851e+02 -5.2296991214808077e+02 -4.1963342700069305e+04 -8.9979508490860098e+01 -1.1444921753027942e+04 -2.5661797681085545e+00 -4.0245619304144057e+03 4.4440164267309683e+00 -2.9578000588799478e+02 -1.7822601454089454e+02 -2.1773537466215930e+02 -2.6231336734930053e+04 -3.5562151278583769e+01 1.2063126641122745e+05 4.5799411444800953e+01 -1.4850248351231028e+03 -1.1645134841468126e+02 -1.2612200193851313e+03 -1.4314838804192259e+03 6.7499066461819154e+01 -4.2301345096673394e+03 -2.5041174622112646e+02 9.3627147338583134e+04 1.1358749290847481e+02 -3.6104173390641823e+04 1.5894182534734864e+02 1.9602819544193881e+02 -1.6193094112640567e+03 -2.3551890329451453e+02 2.8202136445855704e+04 1.5540362946112111e+02 3.1585195613224238e+04 
      </Row>
      <Row Index="37">
        2.3268556899673058e+01 8.5959112355873657e+00 -2.2295342337129568e+01 -7.6365272455793964e-01 -1.5205437197883839e+01 -3.1637281767433194e+00 4.4230529694118221e+00 -1.8952137577419762e+01 -7.1245586600285549e-01 -2.5916141064645927e+01 -4.1963574396650483e+00 1.8842057799287630e+01 -1.0407819768828397e-01 6.0379594545756845e+00 -5.6204957718852278e+00 -5.9762884545328099e+00 5.2754282663609047e+01 5.1425143953600450e-01 1.2272045901560924e+00 1.7466929807193283e+00 -5.9372494537137719e+00 -1.0796075889808465e-01 -1.2781659759259469e+01 -1.6073303573425619e+00 -3.9751644070911709e+00 -5.5827352674519943e+01 2.7126925906752750e+00 -5.7262083921459634e+00 4.0361223593212364e-01 1.7547684871291040e+01 -4.6316297622106040e-02 1.0941969359125835e+01 -2.1198852322707928e+00 -1.3017743621502973e+00 -3.9895048339516507e+01 8.4220425774330465e-01 4.5799411326067911e+01 5.3283802748881435e+00 1.2830650010777717e+01 -7.4732742328286217e-01 -6.0574197297365444e+00 -4.9501012316487021e+00 -7.2520402879803303e-01 -9.5086475599202572e+01 -1.1551617265607828e+00 -7.1480898247451687e+00 -8.3022647804931875e+00 2.3970766217891189e+01 2.9853281480935046e-01 -3.8089682427061460e+00 1.3599459982604853e+00 -1.0251963152287000e+00 2.2877356499949730e-01 -8.3658837006269966e+00 1.8155563998858021e+01 
      </Row>
      <Row Index="38">
        -1.8057607805997133e+04 1.0773407946689986e+01 -4.7179715195512777e+04 4.2874140863181219e+02 -6.5814028597325087e+03 1.5569493999989354e+04 6.7725075672011008e+02 -9.0301476762145758e+03 -6.0381229352906666e+02 3.0486292045832379e+03 3.6569320821334529e+01 9.3245627256539374e+03 3.4341458837606297e+01 -7.2692377718910575e+02 -2.0418823507028865e+03 9.0144444415555336e+02 -4.0007779728621244e+02 4.9161971183458013e+02 1.1443202660565512e+03 -4.4546922277418844e+01 -6.1445083025951171e+03 -7.3822440113952325e+01 1.6349926632987335e+03 2.5560481473392574e+03 -8.8987389657332096e+02 4.0491268726941198e+03 -4.6436022349138511e+01 1.4156795211425051e+03 -1.0450520421770761e+00 2.0547279255055822e+04 -3.1276884036830324e+01 3.9444292125385255e+03 9.3141235825103649e+02 -2.5689412086494849e+02 1.0287827812515199e+04 3.6546464374987409e+01 -1.4850247106999159e+03 1.2830649820871244e+01 2.3401503209393192e+05 3.7010089437329174e+02 -1.0429636268402683e+03 4.7184186594071798e+03 1.1742463400196336e+03 4.2839457916426167e+04 -2.8268970926869417e+02 1.0300272294875025e+05 9.4696371395835740e+01 -2.6021733334202640e+05 -7.8813756302216643e+02 -2.1739015825391871e+03 9.7409884254022181e+03 -3.1818189940576121e+02 -7.7257734180824773e+04 -3.4125934647628719e+02 -9.0658183533401520e+04 
      </Row>
      <Row Index="39">
        -1.1839676213687926e+02 -1.5450515901513349e+00 -2.0910551771929448e+02 1.8618171801597146e+01 2.9074492524479865e+01 -2.8816467853797576e+00 1.6452082065949867e+00 -1.9983362210055384e+02 -7.0966766643833523e-01 1.5388862303799556e+01 1.3483873817039671e+00 1.2838892030258131e+02 9.3618694047651108e-02 4.3596765850452357e-01 -1.2601073088829764e+01 1.0540228564315726e+00 1.2714864149394998e+01 3.4213230211116792e+00 -2.0341566690370215e+01 -4.3773070832741290e-01 -3.4189949065623097e+01 -5.5715837775384358e-01 5.4441168257176287e+00 3.0820518532206620e+00 9.8764596099874780e+00 6.9512819616089473e+01 -4.6749882105082818e-01 2.2873730492035975e+01 4.9369331740929834e-02 2.9671628994698494e+01 -4.5412115122803431e-01 -3.8034828173093956e+01 2.7960237282223517e+00 2.8060494576828177e+00 7.2315735554006096e+01 2.9319840344589920e-01 -1.1645134884205800e+02 -7.4732742286660758e-01 3.7010089409339685e+02 1.5177804758690908e+01 -2.5935919193926225e+00 -1.5300697344144510e+01 4.9496226774288543e-01 2.0866615567863846e+01 7.3518556625972908e-01 1.2058294665571501e+02 1.1485471883182434e+00 1.4514590230242283e+02 -2.7107302423703771e+01 8.4633151044744999e+00 9.0049181697825507e+00 2.8294001337308905e+00 1.4361656818018398e+02 -2.4560325756642971e+00 1.0790688436332445e+02 
      </Row>
      <Row Index="40">
        -1.1422820608434267e+02 -2.4671239575246886e+01 1.3645874337377722e+03 -1.1810592441428769e-01 4.0269936517837050e+02 -4.4673122475967375e+01 -1.0606541707039929e+02 1.3905937679212511e+03 2.3226576088779751e+01 2.2091726913347361e+02 2.7006607373949514e+01 9.8536168022131460e+02 -1.9645767584627283e+00 5.5591283872764325e+02 -1.7675376083744237e+02 -7.7818961927565397e+01 -6.9774805038499471e+02 -3.6365036259448154e+01 6.1025134904336994e+02 -4.5994386210069944e+00 1.6941402890193672e+01 -1.1697110317870880e+00 8.4235245715496967e+02 6.9226287386352396e+00 2.4467868809242646e+01 -1.3577397914214744e+03 1.4339903213275065e+00 3.5851015621799888e+02 1.6989660836312162e+00 -1.7410677532290956e+03 -6.8553767454165637e-02 8.8106721845719926e+02 2.6118239806996172e+02 -1.1792560346248024e+01 -1.8506607428114294e+03 1.2112109518083685e+00 -1.2612200208290087e+03 -6.0574197274711663e+00 -1.0429636326050513e+03 -2.5935919156950202e+00 2.3255811958093041e+03 -9.5071268147051342e+01 -1.2601340014447527e+02 5.1631843848550434e+03 5.7301549769151237e+00 8.1702754014137474e+02 3.1643358711544764e+01 3.2963744456765551e+02 8.0175352572018710e+00 4.9833897436752082e+01 3.6998317236757714e+01 1.1623156218839142e+01 8.3701766423721665e+02 4.5002813712861574e+01 3.1759084436727090e+02 
      </Row>
      <Row Index="41">
        -3.1569681930921797e+02 -2.0634568486928657e+00 -3.2559875719312199e+03 -1.6951443414321041e+01 -1.0868166410492704e+03 1.3236989402244642e+03 -1.7845081315115294e+01 -7.9853915856225649e+02 2.8507765313065377e+01 3.0515035384043176e+02 -2.9776734041355968e+00 -2.1058367431157394e+03 2.0835527108108387e+00 -1.2922626322716678e+02 8.0959970253430527e+01 5.6268996318279733e+01 -5.1690859672951774e+02 -1.5776042093718690e+01 3.6572730972131234e+02 -1.2038753010345653e+00 -4.0800731486655837e+02 -4.5030475564363002e+00 2.4065818220110123e+02 1.7219871642369390e+02 -8.3738527182488724e+01 1.3744906674568629e+03 3.6998647376741189e-02 2.0922931216512734e+02 -2.0567671313980451e-01 1.6853989798999519e+03 -7.2722743378512789e-01 8.5861036562652612e+02 5.0318633206832715e+01 -2.9190145542158689e+01 -8.1371176957261923e+01 -2.3838936693958885e+00 -1.4314838776863471e+03 -4.9501012325010887e+00 4.7184186653813413e+03 -1.5300697348133413e+01 -9.5071268155043981e+01 7.0734286439299194e+02 1.9357039380473935e+01 -3.5094206090764783e+02 1.6503057897555621e+01 -1.0436429827827990e+03 -3.7185165090208159e+00 1.1236780778634484e+03 1.2293933477392102e+01 -3.2775721865124802e+02 7.8164415473358633e+02 -3.4089869954266057e+01 -3.4095149008873449e+02 1.7472182242116318e+01 -2.4150709170958237e+02 
      </Row>
      <Row Index="42">
        -3.9307498138659867e+02 2.6026025366886074e-01 -5.9581292298646656e+02 -1.9363522183903381e-01 6.9431926028773887e+00 1.7398631860066189e+02 1.7864560670821953e+02 9.6852086692128069e+01 -2.0428868449452864e-01 -7.2997732404821477e+01 -1.9508486208157549e+00 2.8308432424712345e+02 8.7058545241770879e-01 -2.3991883370501455e+01 -1.1475724902336424e+01 9.9645186269411738e+01 -3.8445049809524789e-02 3.4963249279458601e+00 -2.6575995668399185e+02 8.7890144463012998e-01 -8.1941021271522345e+01 -7.9372965807536389e-02 -3.3545718125168605e+01 8.6431915414464129e+00 -8.7583340671377755e+01 1.9205543206743096e+02 -4.4313961018371018e+00 9.1145626255092793e+00 -3.7545835333006039e-02 2.5592262147234578e+02 -6.8718440090303368e-02 -7.2170331914085409e+01 -1.6867911153438769e+01 -3.5032687787649166e+01 5.0971038865519949e+02 -1.5004809473842329e-01 6.7499066143216623e+01 -7.2520402771581649e-01 1.1742463390836310e+03 4.9496226932641285e-01 -1.2601340014433333e+02 1.9357039372204326e+01 2.3042520680710805e+02 6.8463006954850971e+02 -2.7395054401639531e+00 4.9681466046325295e+02 -1.6035714312135028e+00 1.4137237830240619e+02 -4.3455572793446038e+00 -8.1489189689757211e+00 8.2470838053419811e+01 -2.5366881326934820e+01 3.2823717087828743e+02 -8.7475603567982922e+00 2.2269135278655202e+02 
      </Row>
      <Row Index="43">
        -1.4818138140626252e+03 -2.2803545258711893e+02 -6.2430828281637223e+03 1.9334460533240161e+01 -3.5360331886224449e+03 1.4877767560160719e+03 7.8667807493374130e+02 6.7463390113621019e+04 -6.8759385461045167e+02 1.9782397061522643e+03 2.1184673312500672e+02 2.1979448233855586e+04 -4.3634415715885098e+00 1.5334191932920367e+03 -1.2253178735780093e+03 -8.3534817830935935e+01 -2.0147219778936356e+04 3.0590547804174912e+02 -1.8970973183723690e+03 -8.4397903700043798e+01 3.4408023520392162e+03 8.2972509681876545e+00 6.6494139099726453e+01 7.0747260196183925e+02 1.0339063038328895e+03 -2.7454704094927758e+04 -7.0101176218291585e+01 -5.1726511984951794e+03 -1.5718425404333857e+01 -4.3339151981007308e+02 -7.1833301836099963e+00 6.6348760058981716e+03 2.1162143297640432e+02 3.8327474297604931e+02 1.0928596740530804e+04 -9.8485310349133215e+00 -4.2301340699382126e+03 -9.5086475758044273e+01 4.2839458972663968e+04 2.0866615709524922e+01 5.1631843866083946e+03 -3.5094206709775608e+02 6.8463007067301442e+02 1.3180426054757508e+05 -3.7409845087689325e+02 -4.4436042201954144e+04 3.8681330800928481e+02 -3.9597325452272045e+04 -4.8676153122607502e+01 -1.1471644353612962e+03 6.5978476719868218e+02 2.9743847354026764e+02 -1.4269414984147277e+05 7.3125982214214673e+00 5.8711984900044677e+04 
      </Row>
      <Row Index="44">
        -1.1186989994245778e+02 2.5082660973619593e+00 1.3220596409201008e+02 8.0427491853929090e-01 3.1728932663316300e+01 -4.2041872358146861e+00 -1.0234165320278024e+00 -3.2803270941375831e+02 2.8300010181564581e+01 5.2033381281477375e+01 -5.2667753655757714e+00 -2.6424063673647714e+02 2.3227997091965413e-01 -6.2226984736507802e+00 2.0065833660581411e+01 -3.9578950357905214e+00 1.7760399888404208e+01 -1.0802427078771679e+01 5.2481634638140001e+01 2.1303645205552098e+00 9.6645907341054240e+00 1.2641716198991571e-01 2.5605916952854614e+01 -6.4919762165370258e+00 5.6898658304602350e+00 2.6680876604279820e+02 4.0966019486447491e+00 4.3112138403090285e+01 5.9866734319978832e-01 -4.7892096047038990e+01 1.4383703519895763e-01 -2.8955541570015356e+01 2.2557552634493021e+00 1.4534086552414465e+00 -4.2249798278921844e+01 8.1385731358372482e-01 -2.5041174612304712e+02 -1.1551617265839988e+00 -2.8268970875426896e+02 7.3518556652874234e-01 5.7301549784324948e+00 1.6503057892889018e+01 -2.7395054399509817e+00 -3.7409845153645142e+02 1.9011686894992582e+01 7.3149717325379427e+01 -1.0811332678343806e+01 -7.8016373150208466e+01 -5.4125179941918944e-01 1.0366677323351322e+01 -3.9919747556321314e+00 1.4268970684153672e+00 -3.7761743210600763e+01 -4.8465189874434147e+00 3.4194260014469258e+01 
      </Row>
      <Row Index="45">
        -3.4668141665518284e+04 5.7563235488923965e+00 6.3196851833312539e+03 1.4438227907147120e+02 2.7493389225974679e+03 -2.9256836701533757e+02 3.8229030593164498e+02 -1.6283426468722522e+04 7.8907508028336451e+01 1.0944031663525850e+04 -2.8467769714516180e+00 9.3645649191234406e+03 -7.6383599480059274e+00 -8.7826000161468983e+01 -1.1086798782543046e+03 2.8770081725961063e+01 5.6890976830571890e+02 -2.4656150512728345e+01 1.6696059931916738e+04 2.8304458994398374e+00 1.5552644582147477e+03 -5.3870535218447912e-01 2.7837965283822268e+02 1.4101342978188768e+01 5.7533396201999858e+02 5.4600420504920185e+03 1.9955268986377632e+00 -5.7249842555075884e+02 -3.2871822124516257e+00 -1.7581031410712749e+03 -3.9113934041461107e+00 -1.1486113856087904e+03 1.1367616034083767e+02 2.2497638639761135e+02 1.4413357151269913e+04 2.9750207025761483e+01 9.3627147270649672e+04 -7.1480888544881509e+00 1.0300272203997523e+05 1.2058294975039280e+02 8.1702754959603772e+02 -1.0436430023661815e+03 4.9681466246144555e+02 -4.4436045394513756e+04 7.3149716624175198e+01 7.0579281860480236e+05 3.7282184273790335e+00 -2.0657399777375479e+05 -2.0064479199625202e+02 6.6025393870897824e+02 8.5810848547836173e+01 1.9524360481994518e+02 2.4428199883062908e+05 -9.3540068576115118e+01 2.5422660657684528e+05 
      </Row>
      <Row Index="46">
        1.0063894787157369e+02 -1.8347040833157443e+01 -7.2103530123310122e+00 1.5213744902043995e+00 -2.4917836855420319e+00 6.6980138617890361e+00 -9.7782014849740975e+00 2.4097676330462764e+02 -1.7391127070574427e+01 3.0997912499610464e+01 1.3714740476492260e+01 1.1556572147651798e+02 -2.7010128728197680e-01 1.2239157906142282e+00 -7.2991764317924321e+00 1.0804626089499465e+01 -1.4393583267140457e+02 4.9347526643797712e+00 -1.0053966706183960e+01 -5.2870446231616715e+00 9.5426966033868581e+00 -1.3150022021243579e-01 9.7587957272419317e+00 7.7776104743068402e+00 6.6646608595542034e+00 -1.1580866051360408e+02 -9.0006103587404276e+00 -1.8474119159598104e+01 -1.4297014052176644e+00 -2.4380956678674920e+01 -5.5652570107973087e-02 1.9629130597093933e+01 4.3116690006274041e+00 2.5958007883816308e+00 2.6935544561680217e+01 -2.3998356207124942e+00 1.1358749306940172e+02 -8.3022647804443857e+00 9.4696370544277215e+01 1.1485471891713745e+00 3.1643358715925871e+01 -3.7185165082718754e+00 -1.6035714289934475e+00 3.8681330790343463e+02 -1.0811332678481635e+01 3.7282198593732812e+00 2.6923583087501751e+01 -2.2344886674504490e+01 -1.3736152679676721e+00 -9.0204928079155278e-01 -2.0207316231150898e+00 1.8092404801913347e+00 3.4521235967561218e+01 2.4500929715871212e+01 -4.9896810308420584e+01 
      </Row>
      <Row Index="47">
        4.8191267468035221e+03 4.5788339026054018e+01 -4.7341275603906601e+04 1.7019331089538537e+02 -6.3215770912915468e+03 4.0670014142738655e+03 2.4686593054837431e+02 5.1636711046583951e+03 -1.4055503954288724e+02 -1.8044486094221938e+03 -1.8669320824184979e+01 -2.9769687295783660e+03 1.3193924034054362e+01 -2.3009105150401592e+02 -1.2359610815392807e+02 2.5812790694530122e+01 -4.7207430413439870e+03 1.0601818259590800e+02 -4.0292155263447639e+03 -9.4648049104880556e+00 -7.8568088927098433e+03 -3.1677461456187302e+01 1.4981846678946167e+03 7.4517526649229694e+02 -1.4630889781098813e+02 -7.5309684637561440e+02 7.2471662158277468e+00 1.1191757332161069e+03 6.9714533944343202e+00 9.1787965857312083e+03 -1.0756228086795090e+01 5.6815279626853298e+03 2.4834090786447632e+02 -8.6823646347475005e+01 -1.7300448630154133e+03 -3.0301225548028015e+00 -3.6104173713322729e+04 2.3970766764007465e+01 -2.6021733339027548e+05 1.4514590167508140e+02 3.2963743074331433e+02 1.1236780916731805e+03 1.4137237608845317e+02 -3.9597322994833812e+04 -7.8016371962236008e+01 -2.0657400011186281e+05 -2.2344888888939749e+01 6.4700583158892230e+05 -3.1859074571175734e+02 -2.3357794604724986e+03 2.1635507322093763e+03 -8.4284281347507203e+01 2.1484975336567208e+05 -6.2736550181996790e+01 2.2401107235418976e+05 
      </Row>
      <Row Index="48">
        1.6168849459050398e+02 1.0995993869279275e+00 4.7314744004985687e+02 -3.4521616472482251e+01 -8.0600682904332643e+00 -3.0948639149939481e+01 -5.7566921902499075e+00 3.0930383520415489e+02 2.3446837207745119e+00 -3.3636563630961632e+01 -1.5973009582154560e+00 -1.8642056854994149e+02 -1.7645824119008147e-01 -1.5537012459535617e+00 2.3631672122748284e+01 -3.3709122138031375e+00 1.4735500459726609e+01 -6.0886563215474254e+00 3.5470275673386396e+01 5.9675546133784874e-01 7.2037672752324681e+01 1.3938327859916555e+00 -7.4556188760388977e+00 -9.0085786117740554e+00 -1.2482061866011009e+01 -8.5289571170749696e+01 5.4084612343500993e-01 -3.4964987713385199e+01 -1.4022070118688479e-01 -1.0735352264828180e+02 9.9371530378947259e-01 3.6949297505996583e+01 -5.1582566405750185e+00 -2.9272080389195310e+00 -8.5974800892960047e+01 -5.0151810680884523e-01 1.5894182612653094e+02 2.9853281401687770e-01 -7.8813756258747753e+02 -2.7107302423554156e+01 8.0175352649633851e+00 1.2293933469172998e+01 -4.3455572763554784e+00 -4.8676153082496967e+01 -5.4125179904107767e-01 -2.0064478634680574e+02 -1.3736152662528056e+00 -3.1859074666781589e+02 5.4870499386697361e+01 -4.0043832068245955e+00 -3.7170322336400375e+01 -3.0702844583106952e+00 -2.7539872994740477e+02 4.4160008953114325e+00 -2.1027770611528265e+02 
      </Row>
      <Row Index="49">
        -8.0213252793386346e+01 -3.3466670799821827e+00 2.0666103030779504e+03 9.0838232531904719e+00 9.6902956606383668e+02 -7.0010251031949338e+02 -1.7424934758985046e+01 -1.0008820970974339e+03 2.0627351654198208e+01 -9.0462980486367542e+01 -1.4031646302909166e+00 2.3357483778332437e+02 -4.6549652875184222e-01 8.9198270842098282e+01 4.1930066297896019e+01 4.7185962876994836e-01 4.4316419571221923e+02 -1.3798317789258526e+01 -1.5802431678270833e+02 1.2009469888961384e+00 1.3153044507635741e+02 2.0323223987722372e+00 1.4859835651390313e+01 -1.1243542580428584e+02 4.1264898037461535e+00 3.6045405765467876e+02 -1.5520136246003062e+00 1.1870982719003223e+02 5.3559508207705342e-01 -1.0766729855628037e+03 9.3477318806623799e-01 -9.1929211582121343e+02 -1.7567595164598629e+01 2.5112258662192062e+00 -2.5120814640856406e+02 3.1470093408825051e-01 1.9602819553481822e+02 -3.8089682447134745e+00 -2.1739015833843569e+03 8.4633151075003319e+00 4.9833897477323262e+01 -3.2775721868654000e+02 -8.1489189663447803e+00 -1.1471644442507168e+03 1.0366677318707104e+01 6.6025393928018570e+02 -9.0204927285043368e-01 -2.3357794582077204e+03 -4.0043832120059051e+00 2.9247587085514255e+02 -4.2220974869977607e+02 6.3738937987429836e+00 -8.3435005929226008e+02 5.6605554484763729e+00 -5.8875771944873827e+02 
      </Row>
      <Row Index="50">
        -8.6760150594252627e+02 3.8989181380721902e+00 -5.9484726998325723e+03 1.1872358197441422e+01 -1.3191065902931005e+03 1.9115537230611417e+03 3.0657157438040542e+01 -1.1267958176109241e+03 -9.3198084609536522e+00 2.8397979937562127e+02 -1.1735333143766979e+00 -1.1149038915707295e+03 3.1418847874062248e+00 -1.1674016187756206e+02 -8.5504995396199661e+01 9.0545182647858724e+01 -3.8619705012674967e+02 1.3176927810548293e+01 1.7788999691519032e+02 -2.2388218360839716e+00 -8.5941054770069127e+02 -8.4893833821088975e+00 3.3523327817134304e+02 2.7476574960410585e+02 -1.3659990381404896e+02 9.7546439379755611e+02 -8.4480700848817492e-01 2.6657903607430490e+02 5.0255244274709376e-01 2.4453450018576405e+03 -2.5205130525418440e+00 1.0860685114395101e+03 1.1894426278545410e+02 -4.8933853452033134e+01 2.6699392672438989e+01 6.4994394474825867e-01 -1.6193094098838992e+03 1.3599460006945523e+00 9.7409884292997485e+03 9.0049181682239983e+00 3.6998317215899760e+01 7.8164415472873179e+02 8.2470838058859215e+01 6.5978477235072205e+02 -3.9919747511685841e+00 8.5810858965819079e+01 -2.0207316312080081e+00 2.1635507232169798e+03 -3.7170322333066963e+01 -4.2220974867409728e+02 1.1680972136399855e+03 -5.1031046013671443e+01 7.0377735656440018e+02 -7.0081314727071735e+00 4.4825580114930295e+02 
      </Row>
      <Row Index="51">
        -3.9001598158220077e+01 -1.1386580222123968e+00 1.6743979173527401e+02 3.2887267501754431e+00 1.6569462701887460e+01 -9.5295385627564542e+01 -1.3719581986824281e+00 6.2283382274830728e+01 3.0520896660335950e-01 1.1062938008579087e+02 1.1128140010625858e+00 7.4866189099060733e+01 -6.5050794891476160e-01 5.1564040649236631e+00 -6.0794721581969497e+00 -3.3707953258617891e+01 -1.4277448602016193e+02 -2.4482752597365911e+00 1.2917041898096798e+02 -7.9448876342293251e-01 8.6896977254847314e+01 7.1357607350822683e-01 -2.1727438793695910e+01 9.8193570094383631e-01 6.4705921638458619e+01 -5.5909582679231789e+01 1.5940296814779025e+00 -1.3308527529745788e+01 -1.5393144664430691e-01 -9.1479950496726019e+01 3.5684581730691334e-02 6.3298806899594240e+00 -1.8415184951834860e+00 2.3622564991813043e+01 1.1428658972196718e+02 1.6742023251765659e-01 -2.3551890359665958e+02 -1.0251963149503522e+00 -3.1818190028546644e+02 2.8294001344997013e+00 1.1623156220886443e+01 -3.4089869955700294e+01 -2.5366881327272662e+01 2.9743847250883027e+02 1.4268970677643118e+00 1.9524360275123195e+02 1.8092404799730843e+00 -8.4284279245974020e+01 -3.0702844598552161e+00 6.3738937930869106e+00 -5.1031046013587272e+01 1.9407668403218526e+01 1.0915580724998878e+02 2.4868891702500688e+00 4.6304618450704538e+01 
      </Row>
      <Row Index="52">
        -1.4706863899484277e+04 -3.6390156149864197e+00 -1.9130431610018830e+04 1.7021221580285919e+02 -1.8241083975657821e+03 1.2407111099052709e+03 4.3880588024249300e+02 1.4940782480910420e+03 -9.7519023661239771e+01 4.6350475501711480e+03 1.8319031767485285e+01 6.7103438963603112e+03 1.4649610325859612e+00 -1.9177482546865940e+02 -7.3135257021361031e+02 -1.1220464328501839e+02 -7.6795906747356057e+03 6.7986132614918461e+01 6.7779627254423540e+03 -1.0912609395991240e+01 -2.3737280753565137e+03 -1.2442088543015416e+01 5.4703428183961660e+02 3.6232427507650573e+02 3.8727334251767024e+02 -3.3614450491480529e+03 4.1977712006410002e+00 -6.7370746373757720e+02 6.5660818184369418e-01 2.5931165408957750e+03 -8.1741950077412184e+00 2.7897660432229750e+03 1.4070326576952357e+02 1.2595842125598574e+02 1.1054432872481644e+04 7.6563467812375166e+00 2.8202134320065379e+04 2.2877443960700816e-01 -7.7257739377498627e+04 1.4361656760364531e+02 8.3701765566982795e+02 -3.4095146084437147e+02 3.2823716550195968e+02 -1.4269414981754497e+05 -3.7761746319811209e+01 2.4428198343548924e+05 3.4521235182386590e+01 2.1484976545093796e+05 -2.7539872996104532e+02 -8.3435010247096943e+02 7.0377738106017932e+02 1.0915580229288753e+02 7.1254082568198268e+05 -7.0826834659782435e+01 -2.5400215686221825e+05 
      </Row>
      <Row Index="53">
        2.6531102960822318e+02 -1.7008505402931355e+01 1.5624655505789624e+02 -2.0252275222110727e+00 -1.6220365881472389e+01 -5.7496818959396023e+00 -2.0020804649806763e+01 1.0155338291790031e+01 -2.3090268049973446e+00 8.2174999236828285e+01 1.1893108387197049e+01 -2.7796978978331691e+02 -8.1749150618616984e-01 4.3331513946432096e+00 1.4556895466263242e+01 1.2252110023705697e+01 -2.4320896166306920e+02 -8.5784674215143237e+00 2.2768443851687486e+01 -4.6663464407906883e+00 2.7283713050355544e+01 -1.6683314120987447e-01 2.3212193852371911e+01 -2.3175952670953848e-01 1.0030925452308907e+01 -2.4549944249523833e+01 -8.6381338042472287e+00 6.0428787538621691e+00 -1.2880255842402735e+00 -7.6715898700287880e+01 8.4322483012020832e-02 1.6545430234564435e+01 5.5147853813312082e+00 3.6985416820266437e+00 -1.6890265855202961e+02 -3.0799040065820975e+00 1.5540362987884509e+02 -8.3658837008533631e+00 -3.4125934679918942e+02 -2.4560325748512799e+00 4.5002813718501784e+01 1.7472182241737983e+01 -8.7475603537558122e+00 7.3125981640732789e+00 -4.8465189873280181e+00 -9.3540065298435081e+01 2.4500929716371477e+01 -6.2736549153309312e+01 4.4160008937694002e+00 5.6605554438290255e+00 -7.0081314645707380e+00 2.4868891709080430e+00 -7.0826834091032850e+01 3.3493558830400310e+01 -7.7184506882425907e+01 
      </Row>
      <Row Index="54">
        -1.3749734285533428e+04 5.0002548500408011e+01 -1.5790349005895667e+04 1.2988975070475135e+02 -1.0114910495579243e+03 7.4937168370187283e+02 1.6637122860283125e+02 -1.0144206072568893e+04 4.1565363202418666e+01 4.1144359638700262e+03 -3.4188499744712317e+01 6.9793571605568286e+02 4.0529231947220978e-01 -5.3650661170482635e+01 -4.1361163126560859e+02 6.9527047181734815e+01 3.6840882385671139e+03 4.4471884000377031e+00 5.7612918982825358e+03 6.7316536335711135e+00 -2.9384570959641133e+03 -1.1434155716560781e+01 8.2094801687076688e+02 1.3349948059627786e+02 1.6496065189223737e+02 6.4226814990341663e+03 7.0381093150936067e+00 7.6184777785837650e+02 2.1309056471309304e+00 2.5866339861750603e+03 -4.4190014376654290e+00 1.3323664192017168e+03 9.2130059666465968e+01 5.2017093265196308e+01 1.5898299203515053e+03 1.7280312651768327e+01 3.1585197347313166e+04 1.8155564638087867e+01 -9.0658179296949878e+04 1.0790688740611222e+02 3.1759084856975824e+02 -2.4150712670292705e+02 2.2269135794127942e+02 5.8711984140038490e+04 3.4194263607671019e+01 2.5422661962527584e+05 -4.9896813162544277e+01 2.2401106261424359e+05 -2.1027771079359809e+02 -5.8875767913163872e+02 4.4825577524193795e+02 4.6304623372619972e+01 -2.5400215354814331e+05 -7.7184510611001315e+01 7.3179442758542043e+05 
      </Row>
    </InverseHessian>
  </Weights>
</MethodSetup>
